-2.564563453197479248e-01
-6.956002116203308105e-01
9.280669689178466797e-02
-6.104221343994140625e-01
-4.355487525463104248e-01
-5.024889111518859863e-01
2.801513969898223877e-01
-9.528332389891147614e-03
-1.698895543813705444e-01
5.198838710784912109e-01
-1.989228427410125732e-01
-1.491255164146423340e-01
-3.129727244377136230e-01
1.093930006027221680e-01
6.635424494743347168e-01
6.498873233795166016e-01
5.699266791343688965e-01
-5.246385335922241211e-01
-7.797160744667053223e-02
-1.243096962571144104e-01
1.918603926897048950e-01
1.501763463020324707e-01
-5.845625996589660645e-01
3.219295442104339600e-01
4.520629346370697021e-01
4.757083356380462646e-01
3.163323700428009033e-01
5.842351913452148438e-01
3.806610703468322754e-01
1.232575997710227966e-01
5.535113215446472168e-01
6.057004630565643311e-02
-3.036524653434753418e-01
-3.019587509334087372e-02
-3.355455100536346436e-01
-5.467151999473571777e-01
-2.685320377349853516e-01
-2.383417636156082153e-01
-5.983617901802062988e-01
-4.533323347568511963e-01
