-8.834818378090858459e-03,-7.810967508703470230e-03,1.703491620719432831e-02,-9.237119928002357483e-03,1.893918029963970184e-02,-5.509121809154748917e-03,2.165101096034049988e-02,1.559211220592260361e-02,2.355075255036354065e-02,3.816103562712669373e-02,-4.297598823904991150e-02,1.265864912420511246e-02,-3.596405964344739914e-03,2.245361544191837311e-02,3.924921527504920959e-02,7.042815908789634705e-03
2.406423725187778473e-02,3.839063644409179688e-02,-6.783005595207214355e-02,1.701246760785579681e-02,2.360208425670862198e-03,-9.687943011522293091e-02,-2.303147502243518829e-02,3.659915551543235779e-02,1.274732965975999832e-02,-1.078048124909400940e-01,-4.750022292137145996e-02,-8.013051748275756836e-02,4.745608195662498474e-02,-4.712934792041778564e-02,5.450156703591346741e-02,5.948545411229133606e-02
-7.380717433989048004e-03,4.618762060999870300e-03,-1.830128580331802368e-02,2.390112541615962982e-02,-1.635587029159069061e-02,-2.975041419267654419e-02,1.347859483212232590e-02,2.336544916033744812e-02,3.412444889545440674e-02,9.626915678381919861e-03,9.015413001179695129e-03,-3.117337822914123535e-02,-2.027880866080522537e-03,9.233690798282623291e-03,-2.324950695037841797e-02,2.296594670042395592e-03
4.588974639773368835e-02,-3.979329019784927368e-02,5.810402333736419678e-03,1.643635332584381104e-03,-2.955080382525920868e-02,4.994831979274749756e-03,-4.264488816261291504e-04,-2.792236767709255219e-02,-2.192476950585842133e-02,1.837139204144477844e-02,-3.007073514163494110e-02,9.391404688358306885e-03,4.651299491524696350e-02,4.028343036770820618e-02,8.267998695373535156e-03,3.080267831683158875e-02
2.573836594820022583e-02,-1.238247938454151154e-02,-4.240858368575572968e-03,3.402763232588768005e-02,2.896823920309543610e-02,3.170690685510635376e-02,-1.517310040071606636e-03,5.043713003396987915e-02,3.563444595783948898e-03,-2.536464668810367584e-02,2.118467539548873901e-02,-4.858290776610374451e-02,-1.788906939327716827e-02,-9.689387865364551544e-03,2.616735361516475677e-02,1.833194680511951447e-02
3.428499773144721985e-02,5.851788073778152466e-02,-2.368815615773200989e-02,3.408829122781753540e-02,-3.319145739078521729e-02,1.489800028502941132e-02,-1.991124823689460754e-02,3.287007566541433334e-03,1.289671193808317184e-02,-1.937312446534633636e-02,-3.138683736324310303e-02,-2.322462387382984161e-02,-3.407239541411399841e-02,-5.477375164628028870e-02,-3.241683915257453918e-02,3.294855356216430664e-02
-1.699467375874519348e-02,8.590907789766788483e-03,-4.280621558427810669e-02,-2.052029222249984741e-02,-7.848245091736316681e-03,-2.895084768533706665e-02,-3.909059613943099976e-02,4.307522624731063843e-02,3.258696198463439941e-02,7.957224734127521515e-03,-2.879449166357517242e-02,-3.686153143644332886e-02,-6.263807881623506546e-03,-2.349116466939449310e-02,3.993316739797592163e-02,2.547076717019081116e-02
1.056412234902381897e-02,-2.462071925401687622e-02,3.790848329663276672e-02,-1.400117296725511551e-02,1.098843850195407867e-02,1.894013583660125732e-02,-1.940129883587360382e-02,-5.528516601771116257e-03,1.161373220384120941e-02,4.720957018435001373e-03,9.789875708520412445e-03,-2.872735075652599335e-02,2.561080269515514374e-02,-3.167450428009033203e-02,3.569646552205085754e-02,-3.636733395978808403e-03
4.295710939913988113e-03,3.673824295401573181e-02,1.586658507585525513e-02,-6.248278543353080750e-02,-1.651451224461197853e-03,-2.551012113690376282e-02,-1.987416762858629227e-04,-3.752329200506210327e-02,-2.669027447700500488e-02,1.687442511320114136e-02,8.029631339013576508e-03,3.801574558019638062e-02,-4.073177464306354523e-03,-2.066858485341072083e-02,-3.025045245885848999e-02,-3.165449574589729309e-02
-4.267210140824317932e-02,3.098263777792453766e-02,-4.338371008634567261e-02,-3.620314225554466248e-02,-2.723449654877185822e-02,1.478755380958318710e-02,-9.377175010740756989e-03,-5.706514231860637665e-03,-2.259940281510353088e-02,4.508079960942268372e-03,-7.621729746460914612e-03,-5.935035645961761475e-02,-3.692988678812980652e-02,-2.693003788590431213e-02,1.332721952348947525e-02,5.321711674332618713e-02
-4.697782546281814575e-02,-1.829992234706878662e-02,7.547179609537124634e-02,-2.964628115296363831e-02,4.030587524175643921e-02,-9.173631668090820312e-03,-5.066132172942161560e-02,-2.515609376132488251e-02,2.054975740611553192e-02,-3.410384804010391235e-02,-4.269364848732948303e-02,2.424889057874679565e-02,8.641008753329515457e-05,-1.951843872666358948e-02,-4.395198076963424683e-03,-6.956682540476322174e-03
-1.078431494534015656e-02,4.871973022818565369e-02,1.015799306333065033e-02,3.770741820335388184e-02,5.161707848310470581e-02,2.595978230237960815e-02,2.623874507844448090e-02,2.329223975539207458e-02,1.114647649228572845e-02,2.258484251797199249e-02,3.088826686143875122e-02,-3.255226835608482361e-02,-3.905771672725677490e-02,1.723641157150268555e-02,-4.498591274023056030e-02,-4.602905362844467163e-02
4.877919796854257584e-03,1.973644644021987915e-02,-8.124683983623981476e-03,1.180896814912557602e-02,2.581870928406715393e-02,4.641036968678236008e-03,1.944961259141564369e-03,-1.731627248227596283e-02,3.020184114575386047e-03,2.115939278155565262e-03,-2.321866154670715332e-02,-1.786371506750583649e-02,2.058189921081066132e-02,-5.482708290219306946e-02,1.906587556004524231e-02,3.451298922300338745e-02
-6.839488632977008820e-03,4.647121205925941467e-02,-2.597215061541646719e-04,5.428021773695945740e-03,3.147387504577636719e-02,2.062083967030048370e-02,-3.643741458654403687e-02,3.994817286729812622e-02,-5.971683934330940247e-02,3.454749286174774170e-02,-2.953406609594821930e-02,-1.640713959932327271e-02,-3.453572513535618782e-03,2.021448127925395966e-02,1.399834826588630676e-02,-5.562236532568931580e-02
-1.986708678305149078e-02,2.668387256562709808e-02,9.712867438793182373e-03,-6.462357193231582642e-02,-1.188274566084146500e-02,4.112673178315162659e-02,1.472698058933019638e-02,-6.238566711544990540e-03,-3.441466251388192177e-04,3.306969627737998962e-02,-6.076647434383630753e-03,2.003746852278709412e-02,6.815123837441205978e-03,-2.583481371402740479e-03,-5.120692774653434753e-02,-3.609205409884452820e-02
2.816167660057544708e-02,-2.974434942007064819e-02,5.972560960799455643e-03,1.096201501786708832e-02,1.650911197066307068e-02,1.151458639651536942e-02,1.862878724932670593e-02,1.853956840932369232e-02,2.117012254893779755e-02,5.454862490296363831e-03,-4.139297455549240112e-02,-8.023966103792190552e-03,-2.397291921079158783e-02,3.688449412584304810e-02,-1.941114896908402443e-05,-1.509113237261772156e-03
1.460989098995923996e-02,8.644694462418556213e-03,-1.815641112625598907e-02,-2.326688915491104126e-02,2.171484986320137978e-03,1.986717991530895233e-02,8.808518759906291962e-03,-5.609442014247179031e-03,1.161327492445707321e-02,-2.057848125696182251e-02,-7.458182517439126968e-03,7.463687658309936523e-02,1.754596084356307983e-02,-1.125250570476055145e-02,-3.670935332775115967e-02,-4.186247661709785461e-02
-4.851380735635757446e-02,3.577221930027008057e-02,2.149017713963985443e-02,-4.598349332809448242e-03,1.535923406481742859e-02,-1.902889111079275608e-03,6.598788499832153320e-02,2.251180633902549744e-02,3.771910443902015686e-02,2.497712336480617523e-02,-2.945169620215892792e-02,-3.436975181102752686e-02,-3.421167284250259399e-02,6.611933466047048569e-03,-5.753794312477111816e-02,2.881750464439392090e-02
-3.164143860340118408e-02,3.385722171515226364e-03,-1.322180032730102539e-02,-7.056093774735927582e-03,2.176180481910705566e-02,-1.888757385313510895e-02,7.745603797957301140e-04,-7.168009132146835327e-02,3.009513951838016510e-03,3.452392667531967163e-02,1.703018695116043091e-02,3.915643692016601562e-02,3.789666295051574707e-02,-2.835733816027641296e-02,-1.895333081483840942e-02,-6.859438959509134293e-03
3.596925362944602966e-02,1.108822226524353027e-02,6.097435485571622849e-03,9.421961382031440735e-03,-1.611169776879251003e-03,2.767829038202762604e-02,1.762170530855655670e-02,-2.552269957959651947e-02,-2.315433323383331299e-02,-4.471541941165924072e-02,-6.149630248546600342e-02,7.019622717052698135e-03,-8.746218681335449219e-02,-1.831019856035709381e-02,-5.944492667913436890e-02,7.697702385485172272e-03
2.258539013564586639e-02,1.321000885218381882e-02,-5.117266625165939331e-02,3.322734311223030090e-02,-3.133034333586692810e-02,2.802961133420467377e-02,2.600203640758991241e-02,2.629172243177890778e-02,6.442677229642868042e-03,6.776226684451103210e-03,-1.690933108329772949e-02,5.221630632877349854e-02,1.031356956809759140e-02,-7.514669559895992279e-03,3.788993507623672485e-02,4.697854444384574890e-02
3.124565631151199341e-02,-3.525358438491821289e-02,3.896676748991012573e-02,-1.263618748635053635e-02,9.509235620498657227e-03,-3.037197142839431763e-02,7.739064283668994904e-03,1.799963600933551788e-02,-2.036044932901859283e-02,6.153137423098087311e-03,6.766558624804019928e-03,6.901849992573261261e-03,-2.167983353137969971e-02,-1.370236277580261230e-02,3.392755985260009766e-02,1.924029923975467682e-02
4.565571621060371399e-02,1.029075775295495987e-02,-1.341632567346096039e-02,-3.605495020747184753e-02,-6.637309212237596512e-03,-2.679444150999188423e-03,2.333051897585391998e-02,2.545715495944023132e-02,-3.135595470666885376e-02,-4.960948228836059570e-02,-1.604559272527694702e-02,3.816380724310874939e-02,3.227264806628227234e-02,3.932940214872360229e-02,1.167001109570264816e-02,-3.167701140046119690e-02
5.351553205400705338e-03,1.857018470764160156e-02,1.077266130596399307e-02,-1.665915944613516331e-03,-1.857151091098785400e-02,-1.006461307406425476e-02,-4.583075642585754395e-02,-2.866950258612632751e-02,3.146021068096160889e-02,5.647696554660797119e-02,-2.634313330054283142e-02,-1.273407600820064545e-02,-4.693029914051294327e-03,5.179961398243904114e-02,4.330075159668922424e-02,1.880361512303352356e-02
-3.825204074382781982e-02,-2.262315899133682251e-02,-3.321310132741928101e-02,8.293528109788894653e-02,-6.517131347209215164e-03,7.696239650249481201e-02,1.027232594788074493e-02,-5.968756228685379028e-02,9.233119199052453041e-04,5.544176697731018066e-02,-3.166838735342025757e-02,6.965751945972442627e-02,-5.385438725352287292e-02,4.089874401688575745e-02,3.047307394444942474e-02,-2.282013744115829468e-02
5.359469354152679443e-02,3.807276859879493713e-02,-1.426858734339475632e-02,-9.644851088523864746e-03,-4.138049110770225525e-02,-1.929814182221889496e-02,4.293502867221832275e-02,-7.202910725027322769e-03,-7.337004691362380981e-02,2.383998222649097443e-02,-3.175806021317839622e-03,7.456121500581502914e-03,-8.533295476809144020e-04,1.488475687801837921e-02,4.648950695991516113e-02,4.759460315108299255e-02
1.155274268239736557e-02,1.173124741762876511e-02,2.061205741483718157e-04,-4.754601418972015381e-02,1.786006963811814785e-03,-5.582166835665702820e-02,-4.637420922517776489e-02,2.948280423879623413e-03,4.210346192121505737e-02,5.580195225775241852e-03,2.030768245458602905e-02,4.115303233265876770e-02,4.669966921210289001e-02,-3.686801344156265259e-02,-2.301175892353057861e-02,-2.466955408453941345e-02
5.144756287336349487e-02,1.951399073004722595e-02,-4.874842613935470581e-02,6.655155122280120850e-02,5.573986470699310303e-02,-2.696494571864604950e-02,-1.363136153668165207e-02,4.518822208046913147e-02,6.363240536302328110e-04,5.932041630148887634e-02,1.080432208254933357e-03,2.319327555596828461e-02,-9.245052002370357513e-03,-1.134790014475584030e-02,-1.306581893004477024e-03,-3.050153888761997223e-02
1.050092396326363087e-03,1.453884784132242203e-02,2.015054598450660706e-02,3.647515177726745605e-02,3.108965046703815460e-02,-1.912381686270236969e-02,-5.261245742440223694e-02,-5.427134782075881958e-02,1.217049080878496170e-02,1.669115200638771057e-02,3.306448459625244141e-03,-2.882890962064266205e-02,-3.428210690617561340e-02,-3.889165446162223816e-02,-3.115621767938137054e-02,-3.098143078386783600e-02
-1.316567696630954742e-02,3.074906766414642334e-02,9.523943066596984863e-03,-3.549329563975334167e-02,-2.161304466426372528e-02,-7.630697637796401978e-02,3.023205138742923737e-02,2.912844903767108917e-02,-3.223552182316780090e-02,2.948357909917831421e-02,-3.289647027850151062e-02,-1.461145374923944473e-02,-7.288486510515213013e-02,-3.172836080193519592e-02,2.375455386936664581e-02,1.491836085915565491e-02
-2.805651351809501648e-02,-2.685607969760894775e-02,6.360293831676244736e-03,7.300160825252532959e-02,-3.598260506987571716e-02,-2.808758802711963654e-02,3.064685733988881111e-03,-3.952730074524879456e-02,-2.370820567011833191e-02,-2.284352108836174011e-02,-1.769238337874412537e-02,-2.801568806171417236e-02,1.256247051060199738e-02,-1.889667659997940063e-02,-4.129378870129585266e-02,-1.282014045864343643e-02
-1.323913689702749252e-02,8.665139786899089813e-03,7.437575608491897583e-02,4.546397551894187927e-02,4.072880838066339493e-03,-5.985826253890991211e-03,6.886392086744308472e-02,1.634671166539192200e-02,2.457324787974357605e-02,3.845247626304626465e-02,3.064901940524578094e-02,-2.557025477290153503e-02,-6.010642275214195251e-02,3.572877729311585426e-03,-2.766444720327854156e-02,3.053275123238563538e-02
1.944674365222454071e-02,-1.598712056875228882e-02,1.780713163316249847e-02,-3.228899836540222168e-02,2.751526609063148499e-02,-1.584686106070876122e-03,-2.598725818097591400e-02,1.940686255693435669e-02,-3.102244809269905090e-02,-1.927062682807445526e-02,-2.987478300929069519e-02,2.275848202407360077e-02,-4.359776526689529419e-02,4.044429399073123932e-03,5.398707091808319092e-02,4.686833824962377548e-03
9.762652218341827393e-03,3.073772788047790527e-02,5.287040770053863525e-02,-7.244542986154556274e-02,2.984385937452316284e-02,2.285522781312465668e-02,-5.422284826636314392e-03,-1.125536765903234482e-02,-6.174929905682802200e-03,7.474642712622880936e-03,-6.235471367835998535e-02,1.219716016203165054e-02,8.263629674911499023e-02,3.261630656197667122e-03,3.977855667471885681e-02,-8.499700576066970825e-03
1.090150885283946991e-02,4.654778912663459778e-02,-4.360173270106315613e-02,-2.106479369103908539e-02,-3.231796249747276306e-02,4.248217120766639709e-02,-2.674124017357826233e-02,1.119409408420324326e-02,-2.046442404389381409e-02,-8.289649151265621185e-03,6.783231627196073532e-03,-1.093653496354818344e-02,1.604176010005176067e-03,3.568452224135398865e-02,3.202529624104499817e-02,1.256337389349937439e-02
-6.818474084138870239e-02,9.167402982711791992e-03,-2.061210386455059052e-02,8.943872526288032532e-03,3.129091113805770874e-02,3.455907106399536133e-02,4.996590316295623779e-03,-5.109750200062990189e-03,-1.731691695749759674e-02,-2.193178609013557434e-02,-1.114290580153465271e-02,-2.577931806445121765e-02,9.114049375057220459e-03,-2.977509237825870514e-02,-4.272132646292448044e-03,1.203486882150173187e-02
-9.485667943954467773e-02,-4.859175905585289001e-02,-5.206942558288574219e-03,6.783956289291381836e-02,1.138780172914266586e-02,-1.095881778746843338e-02,-6.301604956388473511e-02,-7.452051620930433273e-03,1.405599992722272873e-03,-5.045640841126441956e-02,1.327513810247182846e-02,-3.121683001518249512e-02,-1.322493306361138821e-03,4.302200395613908768e-03,4.384885355830192566e-02,4.315346013754606247e-03
-5.116768181324005127e-02,4.454072564840316772e-02,4.735397920012474060e-02,2.382526407018303871e-03,4.086469858884811401e-02,-4.644400998950004578e-02,2.778174914419651031e-02,2.242273837327957153e-02,-2.032842300832271576e-02,5.198154971003532410e-02,-2.402254566550254822e-02,1.639252528548240662e-02,-5.999122560024261475e-02,4.432160034775733948e-02,-2.788972109556198120e-02,1.810175925493240356e-02
-9.805384092032909393e-03,-1.801390573382377625e-02,1.767888665199279785e-02,2.186106704175472260e-02,3.105807676911354065e-02,-3.945431113243103027e-02,-1.546162366867065430e-02,-1.394166331738233566e-02,-8.128350600600242615e-06,-2.191609004512429237e-03,2.850296348333358765e-02,-3.063921071588993073e-02,-7.711695972830057144e-03,-2.384818717837333679e-02,-7.020759582519531250e-02,3.909654542803764343e-02
-5.351942032575607300e-02,-2.341758087277412415e-02,-6.845419853925704956e-02,2.893033996224403381e-02,-5.260314792394638062e-02,2.797310054302215576e-02,4.906971007585525513e-02,-1.624222286045551300e-02,4.865556582808494568e-02,2.048065699636936188e-02,-6.827989220619201660e-02,1.570694707334041595e-02,-1.428681761026382446e-01,4.085345938801765442e-02,1.332365255802869797e-02,1.006134450435638428e-01
-5.151386559009552002e-02,-2.540413662791252136e-02,5.223444849252700806e-02,6.802096497267484665e-03,-6.778285652399063110e-02,-3.431553393602371216e-02,8.173394948244094849e-03,-1.634076423943042755e-02,-4.693768545985221863e-02,1.944281975738704205e-03,-1.816388033330440521e-02,2.344653476029634476e-03,-9.655534522607922554e-04,-1.298865955322980881e-02,6.426110118627548218e-02,3.440775722265243530e-02
-1.012798747979104519e-03,-5.061952024698257446e-02,6.984964758157730103e-02,-1.008107438683509827e-01,-3.493828698992729187e-02,-4.324273671954870224e-03,-2.030910924077033997e-02,3.810444474220275879e-02,-5.488696973770856857e-03,-7.456602901220321655e-02,-1.649030251428484917e-03,-3.301950916647911072e-02,2.016858197748661041e-02,-3.716746717691421509e-02,4.525393992662429810e-02,1.135959569364786148e-02
9.027195163071155548e-03,-2.325629256665706635e-02,1.487774588167667389e-02,5.145809799432754517e-02,-2.195755392313003540e-02,-4.330307990312576294e-02,1.286205649375915527e-02,2.487239800393581390e-02,1.149709895253181458e-02,-2.329538390040397644e-02,4.327137768268585205e-02,2.582604810595512390e-02,-2.271257899701595306e-02,1.485005486756563187e-02,-1.271125767379999161e-02,3.028019703924655914e-02
-2.850626409053802490e-02,-4.290325194597244263e-02,-3.997180610895156860e-02,3.073588013648986816e-02,-1.610451750457286835e-02,2.929255925118923187e-02,-2.067912183701992035e-02,-2.405669167637825012e-02,-3.307690098881721497e-02,3.957086428999900818e-02,-1.864025741815567017e-02,4.462125524878501892e-02,-1.876568794250488281e-02,3.377326531335711479e-03,1.132345496444031596e-04,-1.356600411236286163e-02
5.523867532610893250e-02,-3.644013078883290291e-03,-1.513655390590429306e-02,7.768716663122177124e-02,2.612332254648208618e-02,6.142747774720191956e-02,1.103777159005403519e-02,3.906217869371175766e-03,-2.020086348056793213e-02,5.633173137903213501e-02,5.207432806491851807e-02,-2.822200395166873932e-02,-6.633613258600234985e-02,2.707959711551666260e-02,-6.760064512491226196e-02,4.096910357475280762e-02
2.497267676517367363e-03,4.213797673583030701e-02,1.521723531186580658e-02,-4.395802319049835205e-02,4.685701802372932434e-02,4.473413899540901184e-02,4.901382699608802795e-02,5.001828540116548538e-03,2.053377451375126839e-03,-3.416778892278671265e-02,-2.589079923927783966e-02,4.542366042733192444e-02,-2.479946427047252655e-02,1.100766006857156754e-02,-1.562240254133939743e-02,2.177005074918270111e-02
3.126127272844314575e-02,-5.113556608557701111e-02,-2.599175460636615753e-02,4.306779429316520691e-02,-2.374032512307167053e-03,-3.732192516326904297e-02,-1.460562646389007568e-02,3.654572181403636932e-03,-3.182392939925193787e-02,1.565720699727535248e-02,1.456183660775423050e-02,-1.302480511367321014e-02,6.829161196947097778e-02,-3.046673350036144257e-02,9.529515518806874752e-04,-2.514555677771568298e-02
3.604494035243988037e-02,2.014574036002159119e-02,-5.811777710914611816e-02,-1.788719440810382366e-03,2.239830791950225830e-02,3.561642020940780640e-02,1.383759547024965286e-02,4.196478426456451416e-02,1.333123887889087200e-03,-9.877878241240978241e-03,1.275243237614631653e-02,-4.123036283999681473e-03,7.271038740873336792e-02,-4.318810626864433289e-02,-4.461805894970893860e-02,3.680376335978507996e-02
-2.216186001896858215e-02,-5.539027508348226547e-03,4.432733636349439621e-03,-2.125071547925472260e-02,-1.797796040773391724e-02,-3.198393434286117554e-02,-6.523272022604942322e-03,-3.361291438341140747e-02,-2.637287415564060211e-02,-4.555844143033027649e-02,2.751360461115837097e-02,5.326939374208450317e-02,-2.128687873482704163e-02,5.835298821330070496e-02,1.781228370964527130e-02,-5.741346627473831177e-02
5.712117627263069153e-02,7.103759329766035080e-03,-1.295185647904872894e-04,-2.865723520517349243e-02,-3.358548879623413086e-02,5.125142633914947510e-02,4.602709040045738220e-02,3.106210008263587952e-02,4.045745730400085449e-02,6.607736647129058838e-02,-1.036837138235569000e-02,-1.240173075348138809e-02,-5.978951975703239441e-02,-2.981491573154926300e-02,-4.480692557990550995e-03,7.702717930078506470e-02
1.339912600815296173e-02,-9.789829142391681671e-03,6.879281997680664062e-02,-3.444801643490791321e-02,6.707202177494764328e-03,8.680167607963085175e-03,-1.335973665118217468e-02,-7.053878158330917358e-03,5.838022101670503616e-03,5.424593016505241394e-02,-3.847199305891990662e-02,5.556900799274444580e-02,-3.863009437918663025e-02,2.690350264310836792e-02,-4.120326042175292969e-02,-4.349574446678161621e-03
5.417570006102323532e-03,4.157999530434608459e-02,-5.215461924672126770e-02,-5.437506362795829773e-03,1.071957685053348541e-02,-4.894793964922428131e-04,-3.390434011816978455e-02,-2.722053974866867065e-02,5.585788749158382416e-03,-6.687483936548233032e-02,-8.174339681863784790e-02,1.752705872058868408e-02,-6.525733321905136108e-02,1.434378232806921005e-02,3.841030225157737732e-02,4.501179978251457214e-02
4.251302406191825867e-02,1.137000601738691330e-02,9.032265096902847290e-02,1.682752370834350586e-02,2.821854315698146820e-02,-2.407594770193099976e-02,-3.204277250915765762e-03,1.068281475454568863e-02,2.081752009689807892e-02,-6.449215859174728394e-02,-1.503424020484089851e-03,-5.934659764170646667e-02,4.374713078141212463e-02,-2.403677254915237427e-02,-1.684744097292423248e-02,3.203876316547393799e-02
4.069155454635620117e-02,-2.988689765334129333e-02,2.905845083296298981e-02,1.084697172045707703e-01,-1.718644797801971436e-02,-7.495809346437454224e-02,-2.336618490517139435e-02,3.337059542536735535e-02,-4.549450799822807312e-02,-5.490630120038986206e-02,-2.773055620491504669e-02,-8.546965196728706360e-03,5.096727237105369568e-02,2.369531430304050446e-02,-2.503337152302265167e-02,-8.221289142966270447e-03
-1.482885889708995819e-02,-1.711437478661537170e-02,1.254889275878667831e-02,4.360210150480270386e-02,-3.348741680383682251e-02,-4.178993031382560730e-02,6.544678658246994019e-02,3.807859960943460464e-03,-3.307781741023063660e-02,2.721800096333026886e-02,-3.270629793405532837e-02,-5.883577466011047363e-02,-6.501588225364685059e-02,1.611168123781681061e-02,1.217620819807052612e-02,3.206624882295727730e-03
2.927959151566028595e-02,1.783020980656147003e-02,-9.679449349641799927e-02,2.320195315405726433e-03,3.767746314406394958e-02,-2.135635353624820709e-02,9.480462968349456787e-02,7.997297681868076324e-03,-1.884230598807334900e-02,3.300115466117858887e-02,-3.047201782464981079e-02,-2.987499907612800598e-02,1.970655517652630806e-03,-5.208699032664299011e-03,-3.327746316790580750e-02,-4.044349119067192078e-02
4.593013972043991089e-02,-3.830494731664657593e-02,-5.809920281171798706e-02,1.956882141530513763e-02,3.652069717645645142e-02,-2.296832203865051270e-02,-3.221386298537254333e-02,1.277227792888879776e-02,-3.654526174068450928e-02,-3.666473552584648132e-02,4.550981894135475159e-02,-7.722510397434234619e-02,-1.332517992705106735e-02,1.933889230713248253e-03,3.775111865252256393e-03,2.809680067002773285e-02
-7.496859878301620483e-02,-8.105161041021347046e-02,4.491431266069412231e-02,9.145439602434635162e-03,-1.739421300590038300e-02,1.817092299461364746e-02,-4.183952510356903076e-02,1.112397667020559311e-02,6.060669198632240295e-02,1.387957297265529633e-02,2.850071992725133896e-03,-7.605929858982563019e-03,5.970964208245277405e-03,8.926291763782501221e-02,-1.140340790152549744e-02,-3.205223008990287781e-02
-8.984542638063430786e-02,6.169737130403518677e-02,-2.677864022552967072e-02,-4.234665632247924805e-02,5.994126200675964355e-02,-5.482994019985198975e-02,3.056720271706581116e-02,-4.898299928754568100e-03,1.146484259516000748e-02,-1.272988319396972656e-02,2.324355021119117737e-02,5.971118435263633728e-02,-2.629205770790576935e-02,4.242310300469398499e-02,-1.983872242271900177e-02,3.158945823088288307e-03
-1.160653308033943176e-02,-8.828267455101013184e-03,1.704628393054008484e-02,3.418586403131484985e-02,4.954795539379119873e-02,1.515586394816637039e-02,-5.238014832139015198e-02,4.187270998954772949e-02,-2.795304870232939720e-03,-3.419862315058708191e-02,1.738653145730495453e-02,1.962282508611679077e-02,-3.642521798610687256e-02,-5.897147953510284424e-02,1.680746115744113922e-02,-2.993898000568151474e-03
-2.501299232244491577e-02,-5.863458663225173950e-02,-1.827837154269218445e-02,3.374936431646347046e-02,-3.213847428560256958e-02,5.760339275002479553e-02,9.118617512285709381e-03,-2.923582447692751884e-03,-8.489118888974189758e-03,4.538837820291519165e-02,6.389256566762924194e-02,2.080710791051387787e-02,9.437129646539688110e-02,1.912377588450908661e-02,-4.553015157580375671e-02,-3.384916856884956360e-02
6.933575961738824844e-03,-4.633283615112304688e-02,7.167661935091018677e-02,1.008516526781022549e-03,1.881398074328899384e-02,4.293331131339073181e-02,-7.662680465728044510e-03,6.612761318683624268e-02,-3.573279455304145813e-02,-2.997311018407344818e-02,-1.693644188344478607e-02,2.500133030116558075e-02,1.139536872506141663e-02,-7.257452607154846191e-02,3.227785602211952209e-02,2.031365223228931427e-02
3.340894728899002075e-02,-4.093943536281585693e-02,-4.525952506810426712e-03,5.085844546556472778e-03,-2.672936022281646729e-02,-4.381154850125312805e-02,5.541337653994560242e-02,5.177042447030544281e-03,4.736262839287519455e-03,-1.507923845201730728e-02,-2.505666925571858883e-04,1.953977718949317932e-02,9.050721675157546997e-02,-1.093574101105332375e-03,-3.724336251616477966e-02,-1.549215707927942276e-02
2.252677641808986664e-02,2.088549919426441193e-02,1.935229636728763580e-02,-6.436994671821594238e-02,2.194370701909065247e-02,8.154160343110561371e-03,-4.233646765351295471e-02,-9.408746846020221710e-03,5.832557752728462219e-02,-1.205671112984418869e-02,2.374496310949325562e-02,1.484287716448307037e-02,7.356376852840185165e-03,1.992313005030155182e-02,8.901968598365783691e-03,-1.788811944425106049e-02
-3.594146296381950378e-02,-5.217694118618965149e-02,-3.934462741017341614e-02,1.068520080298185349e-02,-5.258493125438690186e-03,-2.328244224190711975e-02,-2.657874021679162979e-03,-5.034759268164634705e-02,3.375707939267158508e-02,9.003626182675361633e-04,4.459693282842636108e-02,4.016682878136634827e-02,-4.222541302442550659e-02,6.531142443418502808e-02,-2.684582397341728210e-02,1.659491285681724548e-02
5.242431536316871643e-03,4.530613496899604797e-02,6.827880162745714188e-03,5.227673053741455078e-02,-2.855074405670166016e-02,-3.393181413412094116e-02,3.400329966098070145e-03,4.796354100108146667e-02,3.300837054848670959e-02,-4.035435244441032410e-02,-2.999335899949073792e-02,-3.148683905601501465e-02,2.003828436136245728e-02,-4.611429199576377869e-02,3.423876687884330750e-02,-5.235124751925468445e-02
4.447825625538825989e-02,-5.657521542161703110e-03,-3.207893110811710358e-03,-3.672973439097404480e-02,6.714775227010250092e-03,4.170070216059684753e-02,8.092805743217468262e-02,2.320301346480846405e-02,2.058804593980312347e-02,-2.877503819763660431e-02,2.946761995553970337e-02,-4.458186030387878418e-02,-1.051376014947891235e-01,1.801546849310398102e-02,8.021159097552299500e-03,8.201294392347335815e-02
4.829527065157890320e-02,4.940821602940559387e-02,5.280081182718276978e-03,2.535981126129627228e-02,4.364344477653503418e-02,-4.275307059288024902e-02,1.026208791881799698e-02,-1.849375851452350616e-02,-1.529829762876033783e-02,-6.276280432939529419e-02,-2.168325707316398621e-02,1.288855914026498795e-02,9.572768211364746094e-02,-3.276852890849113464e-02,1.764770480804145336e-03,-8.460293710231781006e-02
6.578591465950012207e-02,-1.905764639377593994e-02,-7.188941352069377899e-03,-4.272028431296348572e-02,5.790396127849817276e-03,5.240602418780326843e-02,4.066449124366044998e-03,-1.269335276447236538e-03,-3.594459220767021179e-02,-2.370215579867362976e-02,-1.803176291286945343e-02,-5.071679502725601196e-02,3.797170147299766541e-02,-1.268949080258607864e-02,-3.567736363038420677e-03,3.566638752818107605e-02
-5.829418823122978210e-02,7.040428929030895233e-03,5.277778953313827515e-02,5.576831847429275513e-02,-8.043263107538223267e-02,5.955312773585319519e-02,1.821695826947689056e-02,-2.534782513976097107e-02,1.305821537971496582e-02,-8.142878301441669464e-03,2.055931463837623596e-02,3.704841062426567078e-02,5.214557424187660217e-02,5.342366918921470642e-02,1.132699102163314819e-02,-9.803276509046554565e-03
-5.100715532898902893e-02,-3.401979105547070503e-03,-2.296660095453262329e-02,3.992975689470767975e-03,4.945079609751701355e-02,4.207591526210308075e-03,4.941834881901741028e-02,2.564998529851436615e-02,5.492240190505981445e-03,2.676901780068874359e-02,5.492912977933883667e-02,2.865017019212245941e-02,-2.340159192681312561e-02,8.985077962279319763e-03,-4.518220946192741394e-02,7.162294536828994751e-02
-6.794237345457077026e-02,-2.175385132431983948e-03,6.128298491239547729e-02,-6.894493103027343750e-02,-3.071906976401805878e-02,7.253919728100299835e-03,-6.287050247192382812e-02,-2.279515378177165985e-02,-1.437072642147541046e-02,6.442490965127944946e-02,3.072418086230754852e-02,6.121706590056419373e-02,1.876657456159591675e-02,9.390934370458126068e-03,6.548431701958179474e-04,2.209648664575070143e-04
4.009082540869712830e-02,3.847079351544380188e-02,-2.667230367660522461e-02,1.471734512597322464e-02,-6.452917121350765228e-03,3.138432279229164124e-02,6.564064417034387589e-03,-3.473472222685813904e-02,1.211199257522821426e-02,1.354143302887678146e-02,-2.529845200479030609e-02,-3.831316530704498291e-02,3.017062135040760040e-02,-1.701835915446281433e-02,-6.183735653758049011e-02,-2.187922131270170212e-03
2.068459056317806244e-02,-4.052357282489538193e-03,-7.922980934381484985e-02,-6.225733086466789246e-03,4.013066366314888000e-02,-4.823101684451103210e-02,8.080073446035385132e-02,5.075279250741004944e-02,-8.075715042650699615e-03,-8.244773000478744507e-02,-5.490297451615333557e-02,-1.061767563223838806e-01,-3.589639440178871155e-02,-1.143749505281448364e-01,4.475260898470878601e-02,6.473011523485183716e-02
3.263490647077560425e-02,4.393482208251953125e-02,2.087717317044734955e-02,9.335544705390930176e-02,2.068003080785274506e-02,7.234519720077514648e-02,2.025564387440681458e-02,2.295919880270957947e-02,2.388787083327770233e-02,5.273351073265075684e-02,-4.953331500291824341e-02,4.225086048245429993e-02,-7.637213170528411865e-02,-2.429697103798389435e-02,2.208444755524396896e-03,-1.848522201180458069e-02
1.882788166403770447e-02,7.518204394727945328e-03,-5.044247582554817200e-02,-1.197347883135080338e-02,3.209090977907180786e-02,-1.030287705361843109e-02,3.021318279206752777e-02,1.256992369890213013e-01,-5.321900825947523117e-03,1.994117349386215210e-02,-7.960833609104156494e-02,-3.971309959888458252e-02,-5.804166942834854126e-02,-4.125011712312698364e-02,8.329135365784168243e-03,4.417857900261878967e-02
-2.739829570055007935e-02,-5.964387580752372742e-02,9.764914959669113159e-02,-2.467543259263038635e-02,-9.199208579957485199e-03,1.012879144400358200e-02,-4.123080894351005554e-02,-1.596271432936191559e-02,-9.567754343152046204e-03,-4.280355945229530334e-02,3.439298272132873535e-02,-1.597394235432147980e-02,-5.043097771704196930e-03,8.935146033763885498e-03,-3.197925165295600891e-02,2.804084494709968567e-02
-4.362044110894203186e-02,2.254363894462585449e-02,-8.165982365608215332e-02,3.527336521074175835e-04,-2.797737903892993927e-02,2.501666918396949768e-02,-2.966283634305000305e-02,4.233496263623237610e-02,3.903558477759361267e-03,-8.884591050446033478e-03,4.971851781010627747e-02,4.334372654557228088e-02,1.021256297826766968e-01,9.638588875532150269e-03,2.906540781259536743e-02,-6.449877470731735229e-02
-9.016478806734085083e-02,-1.079726442694664001e-01,7.558355480432510376e-02,-1.137196645140647888e-01,-1.034180372953414917e-01,6.524681299924850464e-02,-1.004971936345100403e-01,-9.194705635309219360e-02,1.423747837543487549e-01,6.772223860025405884e-02,1.597244143486022949e-01,8.326757699251174927e-02,5.716501176357269287e-02,1.801941990852355957e-01,-3.784257173538208008e-02,-5.516161397099494934e-02
3.843659162521362305e-02,-4.350962990429252386e-05,-1.206384971737861633e-02,7.234732061624526978e-02,-1.798017695546150208e-02,-2.357794344425201416e-02,-1.886305585503578186e-02,-4.532970860600471497e-02,-5.311235785484313965e-02,3.908320143818855286e-02,-1.473617181181907654e-02,-4.837323725223541260e-02,3.264328092336654663e-02,4.931312985718250275e-03,1.097403583116829395e-03,4.621673002839088440e-02
3.964285179972648621e-02,-2.331338822841644287e-02,5.090507492423057556e-02,-8.850580453872680664e-02,5.349556356668472290e-02,2.105259895324707031e-02,4.896004870533943176e-02,5.599322263151407242e-03,7.878986746072769165e-02,-3.022229857742786407e-02,-5.482511967420578003e-02,-2.721783332526683807e-02,3.338607773184776306e-02,-2.935401163995265961e-02,1.910436153411865234e-02,-4.026416689157485962e-02
-1.278517674654722214e-02,-2.361396793276071548e-03,-5.158243235200643539e-03,-1.013866160064935684e-02,2.408622205257415771e-02,-2.937274239957332611e-02,-6.629578024148941040e-02,5.293082911521196365e-03,-7.745293900370597839e-03,-4.371074214577674866e-02,-2.809974364936351776e-02,5.027164891362190247e-02,1.604738272726535797e-02,1.405986864119768143e-02,-3.853902593255043030e-02,-6.132880225777626038e-02
1.568206399679183960e-02,8.375488221645355225e-02,-3.087421180680394173e-03,-1.959721744060516357e-02,6.997596472501754761e-02,-1.732346788048744202e-02,2.875121869146823883e-02,3.960913047194480896e-02,-6.619449704885482788e-02,-3.139849752187728882e-03,-8.964602649211883545e-02,-5.279697477817535400e-02,-2.215608954429626465e-02,-1.754663139581680298e-02,-5.457737669348716736e-02,1.650622114539146423e-02
-1.837675273418426514e-02,-4.514124616980552673e-02,7.898381352424621582e-02,-2.667642571032047272e-02,6.268260069191455841e-03,1.896038278937339783e-02,6.775155663490295410e-03,5.102244671434164047e-03,6.180375348776578903e-03,-5.737609043717384338e-02,-2.629598230123519897e-02,-3.872441872954368591e-02,4.950293898582458496e-02,2.928133355453610420e-03,-1.553791388869285583e-02,-4.165961593389511108e-02
4.110191389918327332e-02,-5.623945500701665878e-03,-3.521597757935523987e-02,8.726633153855800629e-03,4.883189685642719269e-03,-4.527114704251289368e-02,-4.590232297778129578e-02,2.026452682912349701e-02,5.429279059171676636e-02,3.977044951170682907e-03,1.317854877561330795e-02,6.167985033243894577e-03,7.716028392314910889e-02,3.687121346592903137e-02,2.165951579809188843e-02,-6.613416969776153564e-02
-2.320784330368041992e-02,7.104146294295787811e-03,6.521286815404891968e-02,4.302246123552322388e-02,1.424703281372785568e-02,2.811875194311141968e-03,-7.657304406166076660e-03,-3.881761431694030762e-02,4.145541414618492126e-02,-6.523974705487489700e-03,4.307406023144721985e-03,-4.339792951941490173e-02,8.554928936064243317e-03,-2.658098237589001656e-03,3.400834649801254272e-02,-5.174177233129739761e-03
7.019639760255813599e-02,5.806840956211090088e-02,-3.114357031881809235e-02,2.588147856295108795e-02,-3.762678802013397217e-02,-2.179486118257045746e-02,1.904450543224811554e-02,-2.367511158809065819e-03,1.879349723458290100e-02,-3.668627887964248657e-02,-1.578115671873092651e-02,-4.414924234151840210e-02,-4.922041669487953186e-03,-5.758629739284515381e-02,4.839671403169631958e-02,-8.171264780685305595e-04
5.936911329627037048e-02,1.381921321153640747e-01,-1.189168393611907959e-01,4.633394256234169006e-02,6.720345467329025269e-02,-2.355640195310115814e-02,6.978914141654968262e-02,1.031805798411369324e-01,-8.538371324539184570e-02,-3.712940588593482971e-02,-8.852294087409973145e-02,-1.412575542926788330e-01,-1.541966013610363007e-02,-1.622294336557388306e-01,5.108294636011123657e-02,4.185831174254417419e-02
-9.515031240880489349e-03,-4.208181053400039673e-02,3.445692732930183411e-02,-5.423141643404960632e-03,-6.659796927124261856e-03,4.012133553624153137e-02,-2.921474352478981018e-02,1.266987994313240051e-02,2.442777855321764946e-03,2.615205757319927216e-02,-1.032452005892992020e-02,3.750740736722946167e-02,9.157406538724899292e-02,4.565006867051124573e-02,-1.024162471294403076e-01,3.938097879290580750e-02
1.822920888662338257e-02,-5.688969045877456665e-03,8.068502880632877350e-03,3.393235802650451660e-02,1.035684021189808846e-03,7.280703634023666382e-02,3.030976280570030212e-02,6.717409472912549973e-03,-2.148059755563735962e-02,3.033720143139362335e-02,-1.222300250083208084e-02,-6.165670976042747498e-02,2.379705756902694702e-02,-4.395645484328269958e-02,5.252826586365699768e-02,3.446993231773376465e-02
2.246680483222007751e-02,-1.167168002575635910e-02,-5.154829099774360657e-02,8.876193314790725708e-04,4.888698458671569824e-02,3.716401383280754089e-02,-7.716317777521908283e-04,1.424557412974536419e-03,2.281080931425094604e-02,-3.782093152403831482e-02,-1.995184645056724548e-02,-7.612689863890409470e-03,3.924293071031570435e-02,6.339040584862232208e-03,-2.749425359070301056e-02,-5.704372597392648458e-05
9.468215703964233398e-02,3.888474777340888977e-02,3.921391442418098450e-02,2.274954132735729218e-02,2.069999929517507553e-03,-8.065182715654373169e-02,-1.009396556764841080e-02,2.910743653774261475e-02,-8.882313966751098633e-02,-3.281461074948310852e-02,-8.827541768550872803e-02,-1.829615049064159393e-02,4.019429534673690796e-02,-3.392751887440681458e-02,-9.066292084753513336e-03,4.206549748778343201e-02
-6.470037251710891724e-02,-4.106609150767326355e-02,-4.521365743130445480e-03,8.915834873914718628e-02,2.945900522172451019e-02,4.730247706174850464e-02,-5.051364004611968994e-02,-4.707819968461990356e-02,-3.498732298612594604e-02,-3.601931734010577202e-03,-2.942245686426758766e-03,9.791091829538345337e-02,-5.635021720081567764e-03,-1.750889979302883148e-02,-1.568883657455444336e-02,-6.197713688015937805e-02
-5.428044125437736511e-02,1.812256686389446259e-02,-5.705266445875167847e-02,-4.587247036397457123e-03,1.201010216027498245e-02,-1.550356764346361160e-02,1.296349568292498589e-03,2.529913559556007385e-02,1.524361781775951385e-02,-2.866219915449619293e-02,4.865689948201179504e-02,-6.688583176583051682e-03,-9.721635840833187103e-03,1.358701754361391068e-02,1.831752248108386993e-02,-4.035204276442527771e-02
5.408242717385292053e-02,-6.373128294944763184e-02,-5.691949650645256042e-02,8.972916752099990845e-02,7.135210931301116943e-02,-4.148305580019950867e-02,2.748618833720684052e-02,2.572780102491378784e-02,-2.401805482804775238e-02,-2.015235461294651031e-02,3.195189684629440308e-02,-6.940020620822906494e-02,-8.314930647611618042e-02,-1.000229828059673309e-02,6.055681034922599792e-02,1.548860035836696625e-02
-5.107551068067550659e-02,1.662829145789146423e-02,-4.520780220627784729e-02,5.497575178742408752e-02,1.534890756011009216e-02,-3.147795563563704491e-03,2.397423423826694489e-02,2.258548140525817871e-02,2.772359410300850868e-03,-3.737663105130195618e-02,8.153987117111682892e-03,1.125973928719758987e-02,4.290113225579261780e-02,4.415899887681007385e-02,-4.433761164546012878e-02,-9.634437412023544312e-02
4.270556196570396423e-02,1.837990246713161469e-02,-1.245087571442127228e-02,7.468635588884353638e-02,-2.702190726995468140e-02,1.273180264979600906e-02,-4.235577583312988281e-02,6.734949350357055664e-02,-9.701731614768505096e-03,6.352432817220687866e-02,-2.255625277757644653e-02,4.346148297190666199e-02,-7.547085732221603394e-02,-2.057151310145854950e-02,1.502017211169004440e-02,-1.478852424770593643e-02
-5.229931324720382690e-03,-2.104179002344608307e-02,5.980146303772926331e-02,-1.087184157222509384e-02,2.538890019059181213e-02,3.347515128552913666e-03,-3.775882720947265625e-02,-4.280054941773414612e-02,2.119136415421962738e-02,4.626920446753501892e-02,-3.421539440751075745e-02,7.504518143832683563e-03,-7.976453751325607300e-03,-2.209959737956523895e-02,3.128181025385856628e-02,9.869009954854846001e-04
-3.242043033242225647e-02,-1.935082301497459412e-02,-1.185910031199455261e-02,5.702264234423637390e-02,-1.965008303523063660e-02,5.182845890522003174e-02,-4.657815024256706238e-02,5.600274354219436646e-02,-1.078589539974927902e-02,1.205158792436122894e-02,5.785336717963218689e-02,-4.365065542515367270e-04,3.183062747120857239e-02,-4.655523598194122314e-02,2.304788306355476379e-02,-5.248408392071723938e-02
-2.287648804485797882e-02,3.963992744684219360e-02,3.721818095073103905e-03,1.486164480447769165e-01,1.626641675829887390e-02,-9.952995926141738892e-03,-1.102975457906723022e-01,-6.268429011106491089e-02,-3.750487044453620911e-02,-1.070326566696166992e-02,7.938369177281856537e-03,1.196147687733173370e-02,1.487407833337783813e-01,-4.036405310034751892e-02,4.550876468420028687e-02,-6.692185252904891968e-02
-2.166064083576202393e-02,4.114020988345146179e-02,-9.310107678174972534e-02,4.594527184963226318e-02,-3.616956993937492371e-03,5.680875107645988464e-02,-4.227821528911590576e-02,-1.982205733656883240e-02,5.582784116268157959e-02,-2.326278202235698700e-02,6.088016554713249207e-02,1.903072372078895569e-02,7.725632190704345703e-02,5.268258601427078247e-02,-2.045371755957603455e-02,-5.615545809268951416e-02
3.512340411543846130e-02,-6.419046223163604736e-02,1.891869306564331055e-02,-2.025926485657691956e-02,1.680836640298366547e-02,-1.697182841598987579e-02,-3.130726516246795654e-02,-7.545161526650190353e-03,6.484624743461608887e-02,-3.866366343572735786e-03,-2.522262185811996460e-02,1.140867918729782104e-02,8.984625339508056641e-03,1.463622786104679108e-02,3.022391907870769501e-02,-5.812442675232887268e-02
6.694593932479619980e-03,3.400311246514320374e-02,-1.390330959111452103e-02,-6.643611192703247070e-02,2.569454163312911987e-02,-6.553275510668754578e-03,2.447159262374043465e-03,7.430686615407466888e-03,1.299848686903715134e-02,-2.365963160991668701e-02,-9.188974509015679359e-04,2.113894186913967133e-02,-6.121304258704185486e-02,4.791125282645225525e-02,6.683672219514846802e-02,3.952094912528991699e-02
3.878429532051086426e-02,2.743776701390743256e-02,4.006996168754994869e-04,7.414836436510086060e-03,3.901752829551696777e-02,-2.479367703199386597e-02,1.918022893369197845e-02,2.362764813005924225e-02,2.034033462405204773e-02,-6.767196208238601685e-02,-3.010963322594761848e-03,-2.024911716580390930e-02,-1.768599636852741241e-02,3.385348245501518250e-02,4.149578977376222610e-03,6.933257449418306351e-03
1.289521157741546631e-02,1.396049652248620987e-02,4.002574086189270020e-02,3.536312654614448547e-02,8.435245603322982788e-02,-5.311096902005374432e-04,2.490301430225372314e-02,8.445480838418006897e-03,-3.228250890970230103e-02,-6.137927249073982239e-02,-1.199262775480747223e-02,4.568177973851561546e-04,-3.398264944553375244e-02,9.037487208843231201e-03,2.930746227502822876e-02,1.082514226436614990e-02
1.091922819614410400e-02,3.023770451545715332e-02,1.051102764904499054e-02,-1.402532309293746948e-02,3.925845026969909668e-03,5.571483075618743896e-02,5.127164348959922791e-02,7.651836425065994263e-02,-7.200997788459062576e-03,-1.239358354359865189e-02,-4.161636531352996826e-02,1.621935330331325531e-02,-1.538406312465667725e-01,-3.643179684877395630e-02,-2.568523399531841278e-02,3.595139831304550171e-02
2.491630986332893372e-02,3.386125713586807251e-02,2.858781814575195312e-02,-8.551108837127685547e-02,1.195116341114044189e-02,-6.263782829046249390e-02,-1.308873482048511505e-02,-1.030171010643243790e-02,4.874723032116889954e-02,-2.233063615858554840e-02,2.954408060759305954e-03,-7.787109352648258209e-03,6.821651756763458252e-02,2.336893230676651001e-02,1.172519288957118988e-02,-2.491285093128681183e-03
-3.015114367008209229e-02,-2.813271619379520416e-02,-5.438086017966270447e-02,-9.115017019212245941e-03,-7.824902422726154327e-03,5.484480410814285278e-02,-3.259789571166038513e-02,-1.363690011203289032e-02,-7.907908409833908081e-03,4.028378799557685852e-02,8.698769658803939819e-02,1.044387277215719223e-02,-2.964353375136852264e-02,-1.721191406250000000e-02,-6.079643033444881439e-03,-1.846795203164219856e-03
-3.038312494754791260e-02,5.701240524649620056e-02,-1.298195123672485352e-02,7.594490796327590942e-02,-6.709803361445665359e-03,-2.494052052497863770e-02,-2.996194735169410706e-02,7.330014556646347046e-02,-3.163075819611549377e-02,-4.966709762811660767e-02,1.699109375476837158e-02,1.344721531495451927e-03,-2.871761471033096313e-02,-6.391313392668962479e-03,7.103951275348663330e-02,-3.449947386980056763e-02
-8.026373572647571564e-03,-1.323557458817958832e-02,-1.031868066638708115e-02,5.782175064086914062e-02,2.219953574240207672e-02,4.765508696436882019e-02,7.969131693243980408e-03,-2.210462652146816254e-02,4.108095169067382812e-02,2.637409791350364685e-02,-1.513469498604536057e-02,5.899882689118385315e-02,1.682520471513271332e-02,-3.686030954122543335e-02,1.392499636858701706e-02,-2.946555987000465393e-02
6.473600864410400391e-02,7.271258533000946045e-02,1.370045915246009827e-02,2.855229936540126801e-02,1.217176089994609356e-03,7.819634862244129181e-03,7.786370813846588135e-02,1.039293035864830017e-01,-3.583724796772003174e-02,-2.721932716667652130e-02,-8.664031513035297394e-03,-3.792282193899154663e-02,-1.731642149388790131e-02,-1.441260613501071930e-02,-2.401271462440490723e-02,2.520157769322395325e-02
-1.642710529267787933e-03,-4.396934062242507935e-02,-7.210040837526321411e-02,2.906133979558944702e-02,4.807079583406448364e-02,-4.725757241249084473e-02,-2.506775222718715668e-02,-9.467926807701587677e-03,-4.217700287699699402e-02,-4.469672963023185730e-02,-8.008158183656632900e-04,-2.127135731279850006e-02,-4.095172509551048279e-02,-2.380983904004096985e-02,2.706135436892509460e-02,-2.764877490699291229e-02
4.909862205386161804e-02,-2.145313657820224762e-02,2.155116386711597443e-02,6.312966346740722656e-02,-5.574458464980125427e-02,2.411758527159690857e-02,5.558397248387336731e-02,-1.959384046494960785e-02,4.010096937417984009e-02,-1.791217364370822906e-02,-1.197862811386585236e-02,-4.241341724991798401e-02,-5.606973543763160706e-03,-1.274861861020326614e-02,-7.310798019170761108e-02,-2.496838010847568512e-02
3.180006146430969238e-02,-7.221089908853173256e-04,-3.047021105885505676e-02,-1.873672194778919220e-02,2.056811191141605377e-02,-1.047155912965536118e-02,5.055100098252296448e-02,4.870767146348953247e-02,-3.689048439264297485e-02,-3.571551293134689331e-02,-4.989339411258697510e-02,3.034940548241138458e-02,3.576040617190301418e-04,-7.872489839792251587e-02,-2.409588545560836792e-02,6.047937646508216858e-02
-3.793055564165115356e-02,-9.789248555898666382e-02,2.882591821253299713e-02,1.078528258949518204e-02,-3.348870202898979187e-02,8.993563055992126465e-02,-6.967950612306594849e-02,-3.791290521621704102e-02,4.520766437053680420e-03,9.314459562301635742e-02,6.019567698240280151e-02,5.726173147559165955e-02,3.530328348278999329e-02,1.986238360404968262e-02,-8.345717191696166992e-02,-5.370338261127471924e-02
-1.106732431799173355e-02,5.063508823513984680e-02,-1.495701447129249573e-02,7.423792779445648193e-02,-1.682312972843647003e-02,2.463244646787643433e-02,4.683682695031166077e-02,3.945522382855415344e-02,2.488400042057037354e-02,2.337814681231975555e-02,-3.965578973293304443e-02,-5.872185900807380676e-02,1.677877502515912056e-03,7.714745588600635529e-03,-8.571731299161911011e-02,-1.212628651410341263e-02
-1.736251637339591980e-02,3.416399704292416573e-03,6.516785919666290283e-02,-4.906345903873443604e-02,-8.629333972930908203e-02,-3.352463012561202049e-03,2.726455591619014740e-02,-3.522914275527000427e-02,5.640650913119316101e-02,7.437465339899063110e-02,-3.268921375274658203e-02,6.767576932907104492e-02,-2.648493740707635880e-03,5.585884302854537964e-02,-3.668122366070747375e-02,-1.967755332589149475e-02
1.463079545646905899e-02,-1.883179694414138794e-02,1.451295893639326096e-02,3.274429962038993835e-02,2.252937480807304382e-02,-3.377687931060791016e-02,4.418919607996940613e-02,-8.997052907943725586e-02,3.380759805440902710e-02,-6.356083601713180542e-02,-5.531811341643333435e-02,-1.357322931289672852e-02,6.352264434099197388e-02,1.374402828514575958e-02,5.072656646370887756e-02,-4.022009670734405518e-02
5.846989527344703674e-02,8.663810789585113525e-02,1.421454735100269318e-02,1.157285645604133606e-01,7.281851023435592651e-02,-2.585615776479244232e-02,-1.513373013585805893e-02,5.413601174950599670e-02,-4.989821463823318481e-02,-6.534457206726074219e-02,-7.602167129516601562e-02,-8.788624405860900879e-02,4.325687140226364136e-02,-1.231340020895004272e-01,9.355655312538146973e-02,1.003950834274291992e-02
5.996413156390190125e-02,1.423244029283523560e-01,-9.018500149250030518e-02,1.334925740957260132e-02,6.778190284967422485e-02,-1.063686236739158630e-01,7.822015881538391113e-02,1.439643949270248413e-01,-1.312671154737472534e-01,-5.887680873274803162e-02,-2.620037645101547241e-02,-6.330370903015136719e-02,-3.271345049142837524e-03,-6.795734912157058716e-02,2.260247059166431427e-02,7.471274584531784058e-02
3.483014553785324097e-02,8.434291929006576538e-03,2.796302177011966705e-02,1.956282928586006165e-02,-3.337005898356437683e-02,-6.038318574428558350e-02,-5.157779902219772339e-02,-4.667676240205764771e-02,2.684928476810455322e-02,-3.463855013251304626e-02,1.094255317002534866e-02,-6.464321049861609936e-04,-1.522345095872879028e-02,-2.051916345953941345e-02,-1.798968948423862457e-02,-2.960754930973052979e-02
-4.296675324440002441e-03,6.511105690151453018e-03,6.473379582166671753e-02,2.434360422194004059e-02,-2.579398266971111298e-02,7.869982719421386719e-02,-9.891998488456010818e-04,3.090236522257328033e-02,-1.918147690594196320e-02,1.361550483852624893e-02,4.315611720085144043e-02,-1.116648688912391663e-02,-5.746873468160629272e-02,2.236666157841682434e-02,-7.748418953269720078e-03,-3.755044192075729370e-02
-3.922821581363677979e-02,-5.933650955557823181e-02,-1.517637167125940323e-02,-8.565467596054077148e-02,2.466894872486591339e-02,6.346073001623153687e-02,-5.258667841553688049e-02,-6.628682464361190796e-02,6.392364203929901123e-02,4.669738188385963440e-02,5.136304348707199097e-02,-3.643433004617691040e-02,8.081892877817153931e-02,1.030834577977657318e-02,-3.714867681264877319e-02,-1.504209544509649277e-02
-5.133774131536483765e-02,2.564940415322780609e-02,1.313867866992950439e-01,-3.132480010390281677e-02,5.591860506683588028e-03,-4.013246297836303711e-02,-2.925875410437583923e-02,-6.881675124168395996e-02,-7.295100390911102295e-02,-5.756736546754837036e-02,-8.643820881843566895e-03,2.667099470272660255e-03,-6.034721061587333679e-02,2.424190565943717957e-02,-1.142544113099575043e-02,3.031552024185657501e-02
5.165567249059677124e-02,3.374653309583663940e-02,1.920072594657540321e-03,-6.328459829092025757e-03,5.351305380463600159e-02,-4.861141368746757507e-02,3.999394178390502930e-02,4.263143986463546753e-02,-1.679328270256519318e-02,-5.356948822736740112e-02,3.565266495570540428e-03,-1.823083683848381042e-02,4.500277712941169739e-02,-1.502683851867914200e-02,-1.484386436641216278e-02,1.016723271459341049e-02
-3.910778835415840149e-02,-4.897822812199592590e-02,-1.791954506188631058e-03,-7.157349586486816406e-02,-2.620877698063850403e-02,-2.471513301134109497e-02,-8.184398757293820381e-04,-7.878333330154418945e-02,-1.717088557779788971e-02,-4.629715904593467712e-02,3.868274763226509094e-02,1.457514008507132530e-05,-5.282940343022346497e-02,2.868719771504402161e-02,-1.286441460251808167e-02,4.996648430824279785e-02
-5.575435701757669449e-03,-3.963370248675346375e-02,-5.822001770138740540e-02,3.094536997377872467e-02,-2.491697855293750763e-02,3.314719349145889282e-02,-3.867533430457115173e-02,6.175099872052669525e-03,3.089900128543376923e-02,-1.626649871468544006e-02,1.808892376720905304e-02,1.964134909212589264e-02,-5.411793291568756104e-02,1.306196092627942562e-03,2.356255799531936646e-02,8.111746050417423248e-03
1.133188698440790176e-02,-2.023834735155105591e-02,1.724343746900558472e-03,1.170334964990615845e-02,-2.416341006755828857e-02,-3.406724194064736366e-03,3.756094723939895630e-02,-1.397216226905584335e-03,5.593929439783096313e-02,1.130803395062685013e-02,6.733281910419464111e-02,1.124646607786417007e-02,7.969166152179241180e-03,-5.941807478666305542e-02,-4.123601596802473068e-03,-2.882069908082485199e-02
-6.817040592432022095e-02,-3.380799293518066406e-02,1.554536540061235428e-02,4.271651431918144226e-02,-6.608188152313232422e-02,5.980779230594635010e-02,1.831750501878559589e-03,-1.873807981610298157e-02,3.604959696531295776e-02,2.139712497591972351e-02,4.625136777758598328e-02,3.288152068853378296e-02,8.575915545225143433e-02,3.426925465464591980e-02,-3.285003080964088440e-02,1.302032452076673508e-02
4.209245089441537857e-03,-7.226650416851043701e-02,-2.515657572075724602e-03,2.607257105410099030e-02,-1.265089213848114014e-02,-2.422124147415161133e-02,2.609153045341372490e-03,2.371300477534532547e-03,2.683611400425434113e-02,1.013801526278257370e-02,-2.583819627761840820e-02,3.347672894597053528e-02,2.013920247554779053e-02,1.430762186646461487e-02,4.993031919002532959e-02,-3.941674530506134033e-02
-3.472173353657126427e-03,2.903820946812629700e-03,5.059732869267463684e-02,1.961936801671981812e-02,1.395754283294081688e-03,-2.890809811651706696e-02,-1.096236635930836201e-03,1.089607551693916321e-02,1.022285688668489456e-02,-2.390865795314311981e-02,3.901476040482521057e-02,-3.739179298281669617e-02,-3.031126968562602997e-02,-2.202988043427467346e-02,-3.740933537483215332e-02,-1.685823127627372742e-02
6.979006528854370117e-02,3.315850719809532166e-02,-3.962127491831779480e-02,4.069315642118453979e-02,3.992490470409393311e-02,-4.356725886464118958e-02,3.572408109903335571e-02,1.001064758747816086e-02,-3.256878256797790527e-02,7.736647035926580429e-03,-6.903668493032455444e-02,-2.472951076924800873e-02,7.059615850448608398e-02,-1.523489411920309067e-02,-7.830152288079261780e-03,9.198970161378383636e-03
-5.247729271650314331e-02,-3.280767425894737244e-02,-9.936268627643585205e-02,-6.845292448997497559e-02,-2.004273235797882080e-02,2.100750990211963654e-02,-3.574439883232116699e-02,3.698606044054031372e-02,-6.419295910745859146e-03,1.146463677287101746e-02,1.877235481515526772e-03,-3.248921409249305725e-02,8.927192538976669312e-03,1.407187315635383129e-03,3.849536180496215820e-02,-2.530942112207412720e-02
-3.610894083976745605e-02,1.081242784857749939e-02,9.912789613008499146e-02,-1.032461374998092651e-01,-2.579741878435015678e-03,3.182317689061164856e-02,1.877003721892833710e-02,-8.683735504746437073e-03,-1.116333995014429092e-02,1.295923534780740738e-02,-1.315197814255952835e-02,7.600393891334533691e-02,-1.191978305578231812e-01,2.688599936664104462e-02,-7.470053434371948242e-02,7.660124450922012329e-02
4.063971340656280518e-02,1.898565143346786499e-02,2.876853384077548981e-02,1.330355554819107056e-01,5.947539582848548889e-02,-5.000337958335876465e-02,-1.125492341816425323e-02,-3.035652078688144684e-02,-3.530864790081977844e-02,-1.147056743502616882e-02,-3.407890722155570984e-02,-1.052437536418437958e-02,-7.805315777659416199e-03,-1.907241716980934143e-02,2.161582000553607941e-02,-5.151559133082628250e-03
-2.843851968646049500e-02,-1.250846777111291885e-02,-4.011118784546852112e-02,-3.038473241031169891e-02,-3.734118118882179260e-02,4.088126122951507568e-02,-1.849314942955970764e-02,-2.155466377735137939e-02,3.343353420495986938e-02,-2.131296135485172272e-02,1.905693486332893372e-02,2.084393985569477081e-02,-7.074525207281112671e-02,3.602641820907592773e-02,1.748237013816833496e-02,4.708038643002510071e-02
3.671810403466224670e-02,2.116769738495349884e-02,-1.973260752856731415e-02,-6.250450015068054199e-02,5.632468312978744507e-02,-3.641066700220108032e-02,1.172180939465761185e-02,5.898130312561988831e-02,9.698614478111267090e-03,-3.243688866496086121e-02,-6.012083962559700012e-02,-4.322563484311103821e-02,1.206126622855663300e-02,1.524618174880743027e-02,8.640441112220287323e-03,-2.779563888907432556e-02
6.274576764553785324e-03,4.307725280523300171e-02,-1.084957085549831390e-02,3.974614664912223816e-02,2.324847877025604248e-02,1.487977430224418640e-02,6.532473862171173096e-02,-3.999148961156606674e-03,-1.123742666095495224e-02,-7.505516521632671356e-03,2.241590246558189392e-02,-3.575647249817848206e-02,-9.229192510247230530e-03,-4.317336529493331909e-02,-1.842951960861682892e-02,5.179674178361892700e-02
2.191367559134960175e-03,-3.542250394821166992e-02,-7.162886671721935272e-03,-5.075701326131820679e-02,1.226047147065401077e-02,1.068213582038879395e-02,-2.801717072725296021e-02,-1.803857460618019104e-02,4.959527775645256042e-02,-1.481494400650262833e-02,2.637229673564434052e-02,2.927176188677549362e-03,1.385466847568750381e-02,2.093491144478321075e-02,-3.358063101768493652e-02,-4.737883340567350388e-03
-2.120235003530979156e-02,-1.513347867876291275e-02,1.992134191095829010e-02,-7.106074690818786621e-02,4.554503411054611206e-02,-3.331942483782768250e-02,7.188270334154367447e-03,6.616361439228057861e-03,5.530776083469390869e-02,2.130495570600032806e-02,1.314452383667230606e-02,4.872926324605941772e-02,3.203348070383071899e-02,2.175122499465942383e-02,1.978912623599171638e-04,4.910202696919441223e-02
2.782973088324069977e-02,6.816116161644458771e-03,6.501086056232452393e-02,-8.551694452762603760e-03,-4.017346538603305817e-03,2.288065664470195770e-02,1.178522780537605286e-02,1.312324218451976776e-02,-2.108981832861900330e-02,-8.448861539363861084e-03,-3.756327787414193153e-03,4.144500568509101868e-02,2.705984562635421753e-02,-4.080431163311004639e-02,-1.768686808645725250e-02,-5.644454434514045715e-02
-3.066629730165004730e-02,3.057441860437393188e-02,1.556612364947795868e-02,6.619572639465332031e-03,2.001447835937142372e-03,3.949179127812385559e-02,2.558118104934692383e-02,3.375803679227828979e-02,1.886062882840633392e-02,-1.037028618156909943e-02,5.210910737514495850e-02,5.692041013389825821e-03,-5.451931059360504150e-02,-2.033906988799571991e-03,1.139144692569971085e-02,2.264047507196664810e-03
-5.574332177639007568e-02,-2.488304860889911652e-02,1.065603569149971008e-01,-3.092540241777896881e-02,-4.873101040720939636e-02,4.089645110070705414e-03,-3.138108551502227783e-02,2.748697996139526367e-03,1.254833210259675980e-02,1.315701752901077271e-02,5.464853346347808838e-02,7.000750396400690079e-03,1.044431515038013458e-02,4.288953170180320740e-02,-1.993410289287567139e-02,6.979378405958414078e-03
-6.909979879856109619e-02,-1.905888319015502930e-02,-4.167572595179080963e-03,-4.603517428040504456e-02,-1.449808664619922638e-02,9.730514138936996460e-02,-6.475899368524551392e-02,-3.568364307284355164e-02,2.560694701969623566e-02,4.591065645217895508e-02,3.989405557513237000e-02,1.012121662497520447e-01,-1.881377026438713074e-02,3.174693137407302856e-02,-3.789445385336875916e-02,-8.057524450123310089e-03
4.494358785450458527e-03,1.120965182781219482e-02,6.126136332750320435e-02,6.379892677068710327e-02,-6.987061817198991776e-03,-1.513266377151012421e-02,-4.086787253618240356e-02,-2.519796788692474365e-02,-4.389820992946624756e-02,1.573580317199230194e-02,-5.259591341018676758e-02,-3.920729085803031921e-02,4.964756593108177185e-02,1.179278828203678131e-02,3.262995555996894836e-02,-2.712328732013702393e-02
4.371448233723640442e-02,7.589859422296285629e-03,-6.494326982647180557e-03,-6.483306735754013062e-02,-3.969122096896171570e-02,-1.408138964325189590e-02,4.375914484262466431e-02,1.494189910590648651e-02,4.022230952978134155e-02,5.602192878723144531e-02,-3.651637211441993713e-02,4.095145966857671738e-03,-8.171360939741134644e-02,1.859678514301776886e-02,-2.373998984694480896e-02,1.206286773085594177e-01
9.904547594487667084e-03,-2.330478653311729431e-02,3.219749778509140015e-02,-6.747999787330627441e-02,-6.391444802284240723e-02,-2.854062430560588837e-02,-4.485159367322921753e-02,-9.028795361518859863e-02,6.096530333161354065e-02,-5.893619731068611145e-02,-1.766815222799777985e-02,6.242249161005020142e-02,1.384259313344955444e-01,3.558413311839103699e-02,5.676676053553819656e-03,-8.416152000427246094e-02
3.539463505148887634e-04,-2.051483653485774994e-02,-3.419694304466247559e-02,-5.120470374822616577e-02,-9.354389272630214691e-03,-8.308202959597110748e-03,3.410295397043228149e-02,2.581604942679405212e-02,-2.057175897061824799e-02,-1.989956945180892944e-02,7.092365063726902008e-03,-4.545747116208076477e-02,9.069666266441345215e-02,-4.828436300158500671e-02,4.899672791361808777e-02,-5.016209324821829796e-04
-2.406628988683223724e-02,4.495745524764060974e-03,2.152927778661251068e-02,3.453102335333824158e-02,6.298688054084777832e-02,1.675111986696720123e-02,-6.016708444803953171e-03,-6.369724404066801071e-03,1.366391219198703766e-02,3.998770564794540405e-02,-2.074902877211570740e-02,2.352879941463470459e-02,-2.192462235689163208e-02,-3.908116370439529419e-02,1.530929189175367355e-02,2.085247263312339783e-02
1.019742432981729507e-02,-8.087132126092910767e-02,1.585498452186584473e-02,-7.542609423398971558e-02,-2.969817258417606354e-02,6.162263453006744385e-02,-5.712665244936943054e-02,-3.380499035120010376e-02,-5.203090235590934753e-02,2.594385482370853424e-02,6.733810901641845703e-02,1.614848151803016663e-02,7.399220485240221024e-03,6.100604683160781860e-02,1.194186415523290634e-02,3.388975188136100769e-02
1.037718728184700012e-01,5.287342146039009094e-02,-2.107895724475383759e-02,2.899048849940299988e-02,1.590120047330856323e-02,-1.042356044054031372e-01,-3.600385505706071854e-03,7.714710384607315063e-02,-2.525141648948192596e-02,-9.356994181871414185e-02,-6.792411953210830688e-02,-1.202226243913173676e-02,4.723958298563957214e-02,-3.277636691927909851e-02,4.019163176417350769e-02,2.827247418463230133e-02
3.417079523205757141e-02,7.730261236429214478e-02,2.739389054477214813e-02,-4.925694689154624939e-02,4.970758780837059021e-02,-7.221113890409469604e-02,4.213460534811019897e-02,1.634466089308261871e-02,2.999311126768589020e-02,-1.435805857181549072e-02,-5.663204938173294067e-04,4.361265897750854492e-02,-9.422012418508529663e-02,3.257209807634353638e-02,-1.202024146914482117e-02,8.808728307485580444e-02
-2.009062096476554871e-02,1.683784835040569305e-02,-3.316849470138549805e-02,4.796681553125381470e-02,1.074546109884977341e-02,8.154728263616561890e-02,-6.414832174777984619e-02,-5.987973418086767197e-03,3.697583451867103577e-02,6.877372413873672485e-02,-1.745663955807685852e-02,2.372616715729236603e-02,3.523470833897590637e-02,3.700764104723930359e-02,-7.254847139120101929e-02,-2.514027617871761322e-02
5.180451646447181702e-02,6.251335889101028442e-02,-4.914974793791770935e-02,-6.700283288955688477e-02,2.748760581016540527e-02,1.007565297186374664e-02,5.975367128849029541e-02,-7.626495324075222015e-03,2.767286961898207664e-03,-4.568208009004592896e-02,-1.169250626116991043e-02,-4.544924944639205933e-02,-2.003405988216400146e-02,-8.945029228925704956e-02,1.829765178263187408e-02,-1.386729627847671509e-02
2.462928369641304016e-02,3.026967495679855347e-02,2.668087556958198547e-02,-8.447655476629734039e-03,3.559567034244537354e-02,-5.544312298297882080e-03,-1.405511330813169479e-02,-4.817773029208183289e-02,-2.760959602892398834e-02,6.255405396223068237e-02,-3.735876828432083130e-02,6.879358738660812378e-02,-1.586397364735603333e-02,4.924958571791648865e-03,-2.112716669216752052e-03,4.370730021037161350e-04
-1.204713899642229080e-02,-5.601131170988082886e-02,1.437276154756546021e-01,1.508620381355285645e-02,-5.042696371674537659e-02,-5.088239163160324097e-02,4.074361175298690796e-03,1.995057612657546997e-02,3.707753494381904602e-02,-2.187385968863964081e-02,6.041608378291130066e-02,5.272404104471206665e-02,9.962614625692367554e-02,7.354509085416793823e-02,2.854237146675586700e-02,-3.662474453449249268e-02
6.797382142394781113e-03,4.363271873444318771e-03,3.885769844055175781e-02,-6.250832229852676392e-02,-6.824465841054916382e-02,-3.897329093888401985e-03,-6.011771410703659058e-02,-3.992277011275291443e-02,1.414834149181842804e-02,-9.798797545954585075e-04,5.423467233777046204e-02,4.881347715854644775e-02,8.284696191549301147e-02,4.562159255146980286e-02,-8.562570437788963318e-03,5.783603992313146591e-03
-2.430492267012596130e-02,-5.025754217058420181e-03,-4.235740751028060913e-02,-1.979982852935791016e-02,4.857607185840606689e-02,4.307474941015243530e-02,2.376535907387733459e-02,6.108337640762329102e-02,1.564611447975039482e-03,2.985982224345207214e-02,1.564459316432476044e-02,1.326725725084543228e-02,2.417339198291301727e-02,-2.023749984800815582e-03,6.545208860188722610e-03,5.347763001918792725e-02
3.076313622295856476e-02,-1.136862784624099731e-01,1.414095461368560791e-01,-5.381955578923225403e-02,3.353475779294967651e-02,-8.506526798009872437e-02,4.039499908685684204e-02,-4.560449719429016113e-02,-1.472669281065464020e-02,-6.216484308242797852e-02,2.326547913253307343e-02,-4.007177893072366714e-03,-5.012389644980430603e-02,1.717104949057102203e-02,4.858922585844993591e-02,6.027142331004142761e-02
2.965153381228446960e-02,-8.926575630903244019e-02,6.178477779030799866e-02,1.128675937652587891e-01,-3.032255172729492188e-02,-2.968716248869895935e-02,-5.718953907489776611e-02,-4.810597002506256104e-02,1.877764798700809479e-02,8.558420464396476746e-03,-9.110838919878005981e-02,4.509642720222473145e-02,-1.478169299662113190e-02,2.296806313097476959e-02,1.227416750043630600e-02,-3.808136284351348877e-02
-1.384286768734455109e-02,5.409068986773490906e-02,-6.577333062887191772e-02,8.419855684041976929e-02,-1.860753446817398071e-02,7.229856401681900024e-02,1.352012529969215393e-02,-1.473065558820962906e-02,-4.010086995549499989e-04,-2.144958451390266418e-02,2.428435534238815308e-02,-1.228582020848989487e-02,5.940441973507404327e-03,-4.055042564868927002e-02,2.517409250140190125e-02,-4.011881723999977112e-02
-2.152923028916120529e-03,-1.176087884232401848e-03,-2.883034013211727142e-02,5.529760848730802536e-03,-5.316387489438056946e-02,9.817095845937728882e-02,-4.181757569313049316e-02,-5.723154172301292419e-02,4.287181049585342407e-02,1.091448590159416199e-01,3.902977332472801208e-02,6.336484104394912720e-02,3.105673938989639282e-02,4.773562774062156677e-02,-9.802483022212982178e-02,-2.091440558433532715e-02
3.203428909182548523e-02,2.711633034050464630e-02,-3.237100318074226379e-02,3.091480955481529236e-02,7.155484706163406372e-02,-4.478334449231624603e-03,8.536907285451889038e-02,-1.275943219661712646e-02,-2.357913739979267120e-02,-1.432926487177610397e-02,-6.383246928453445435e-02,-6.154819391667842865e-03,-9.045019000768661499e-02,6.621014326810836792e-03,-1.911556161940097809e-02,1.122252866625785828e-01
-3.500035777688026428e-02,-2.673295559361577034e-03,2.615419402718544006e-02,3.646595031023025513e-02,5.696395412087440491e-03,-1.011828482151031494e-01,2.211472950875759125e-02,5.549352616071701050e-02,-6.146386638283729553e-02,-1.623443886637687683e-02,-2.931053005158901215e-02,-3.984318673610687256e-02,2.986277267336845398e-02,2.489151898771524429e-03,5.124884191900491714e-03,3.075033985078334808e-02
-2.681001462042331696e-02,-6.312727183103561401e-02,3.237022832036018372e-02,-7.685779780149459839e-02,-4.956300929188728333e-02,1.240143924951553345e-01,-4.994821920990943909e-02,-4.708216711878776550e-02,1.117511540651321411e-01,1.194790676236152649e-01,2.643495611846446991e-02,6.820631772279739380e-02,1.065923571586608887e-01,1.230988577008247375e-01,-8.707386255264282227e-02,-8.262458443641662598e-02
4.073699936270713806e-03,-3.015749529004096985e-02,8.838693052530288696e-02,-1.585738360881805420e-02,-1.536467112600803375e-02,2.931520901620388031e-02,-4.796285927295684814e-02,-2.568765543401241302e-02,3.157375007867813110e-02,-1.013011950999498367e-02,-3.749745711684226990e-02,4.517135024070739746e-02,4.716127738356590271e-02,1.111891679465770721e-02,2.314142137765884399e-02,-7.298625539988279343e-03
6.574976444244384766e-02,-1.742331543937325478e-03,-6.752610951662063599e-02,1.162039712071418762e-01,5.139013379812240601e-02,-1.765105128288269043e-02,2.898032777011394501e-02,5.969880893826484680e-02,-4.692104179412126541e-03,-2.398853003978729248e-02,-2.032271027565002441e-02,-4.504096135497093201e-02,-5.823222920298576355e-02,5.424035247415304184e-03,4.026610404253005981e-02,6.223164033144712448e-03
-3.391466289758682251e-02,-2.246937155723571777e-02,7.924027740955352783e-03,-2.699335291981697083e-02,-5.782264471054077148e-02,5.434965714812278748e-02,-3.450142685323953629e-05,-4.005813226103782654e-02,-9.352048859000205994e-03,-1.164387725293636322e-02,3.965323790907859802e-02,2.635562792420387268e-02,2.188219316303730011e-02,1.237268000841140747e-02,-5.746394768357276917e-02,-4.381614923477172852e-02
1.874226331710815430e-02,1.320986193604767323e-03,-1.296471524983644485e-02,2.407292462885379791e-02,1.942273974418640137e-02,6.480218470096588135e-02,-2.498093619942665100e-02,1.169809326529502869e-02,-1.718138717114925385e-02,-5.801586434245109558e-03,6.381113827228546143e-02,3.291299939155578613e-02,9.411296993494033813e-02,3.737792372703552246e-02,1.911416649818420410e-02,-3.481035307049751282e-02
-2.146554645150899887e-03,-1.427605282515287399e-02,-1.144445221871137619e-02,8.042236417531967163e-02,-1.897933520376682281e-02,-5.377451702952384949e-02,3.140222979709506035e-03,8.037184923887252808e-02,-3.818940371274948120e-02,-6.734890490770339966e-02,-2.408700995147228241e-02,-3.913994878530502319e-02,-9.994591027498245239e-02,-2.725274767726659775e-03,-3.754194825887680054e-02,7.057892531156539917e-02
-4.333783313632011414e-02,1.630480214953422546e-02,4.924314841628074646e-02,-1.036514341831207275e-02,1.843277923762798309e-02,-2.730637416243553162e-02,-3.661412373185157776e-02,-7.130377739667892456e-02,-2.688882872462272644e-02,1.681235246360301971e-02,-2.549684047698974609e-02,6.348595023155212402e-02,5.027299746870994568e-02,5.745146051049232483e-02,-1.667182147502899170e-02,-1.214674208313226700e-02
-4.768968373537063599e-02,-6.422200798988342285e-02,-3.340199589729309082e-02,-4.613151401281356812e-02,1.629842445254325867e-02,4.399902746081352234e-02,4.071244597434997559e-02,-4.684124886989593506e-02,-4.152920842170715332e-02,4.288398101925849915e-02,-1.419638562947511673e-02,-2.377363294363021851e-02,-3.655520081520080566e-02,-1.526467874646186829e-02,-3.428416326642036438e-02,-2.945345453917980194e-02
-3.086591884493827820e-02,-7.132061757147312164e-03,5.100786685943603516e-02,1.207588687539100647e-01,3.490629792213439941e-02,-7.440307643264532089e-03,-4.312565922737121582e-02,3.452031686902046204e-02,-3.337559103965759277e-02,-5.701927840709686279e-02,6.266594678163528442e-02,2.889596298336982727e-02,-1.417153049260377884e-02,3.207967057824134827e-02,1.917506009340286255e-02,1.772518828511238098e-02
1.008844189345836639e-02,7.873410359025001526e-03,-3.825667873024940491e-02,-6.876511964946985245e-03,-1.455439906567335129e-02,-2.138077467679977417e-02,2.405593544244766235e-02,3.054651990532875061e-02,5.327749997377395630e-02,-5.113729089498519897e-02,1.588476262986660004e-02,3.985004033893346786e-03,1.255535632371902466e-01,-3.176532313227653503e-02,-2.150471881031990051e-02,1.504417322576045990e-02
-1.512741087935864925e-03,6.917463988065719604e-02,3.010467439889907837e-02,3.407563269138336182e-02,1.850001513957977295e-02,-5.269978940486907959e-02,1.200562622398138046e-02,-3.745632246136665344e-02,1.418909430503845215e-02,3.286891430616378784e-02,-1.746625080704689026e-02,-4.749462008476257324e-03,-2.688044682145118713e-02,-3.164635598659515381e-02,-1.092214509844779968e-02,3.654235601425170898e-02
-5.699128657579421997e-02,1.970318704843521118e-02,4.646028205752372742e-02,-8.775064349174499512e-02,-4.376528039574623108e-02,-1.184302009642124176e-02,-2.711674198508262634e-02,-1.030679093673825264e-03,2.896288176998496056e-03,5.305677186697721481e-04,2.711221948266029358e-02,-3.002425655722618103e-02,5.458918213844299316e-02,2.418626099824905396e-02,-3.748713806271553040e-02,-6.472270190715789795e-02
3.957946598529815674e-02,2.210504747927188873e-02,-1.212725602090358734e-02,8.878056704998016357e-02,-4.413791373372077942e-02,3.262212872505187988e-02,1.126825623214244843e-02,5.069441720843315125e-02,2.008366212248802185e-02,-4.929948598146438599e-02,-3.507753089070320129e-02,-8.979233354330062866e-02,4.896738007664680481e-02,-4.273676872253417969e-02,-2.437558956444263458e-02,1.143754180520772934e-02
2.574318647384643555e-02,2.811560034751892090e-02,5.190112162381410599e-03,-4.654464125633239746e-02,1.313779409974813461e-02,2.530324272811412811e-02,-1.442191656678915024e-02,-5.335545539855957031e-02,3.860644623637199402e-02,5.959177389740943909e-02,4.907460883259773254e-02,4.473061487078666687e-02,6.009499193169176579e-04,1.270809955894947052e-02,-2.478569932281970978e-02,5.451253149658441544e-03
4.095565993338823318e-03,2.343164011836051941e-02,3.852910920977592468e-02,-1.226362735033035278e-01,3.688472881913185120e-02,-2.254129573702812195e-02,9.809842333197593689e-03,5.297608301043510437e-02,2.977200597524642944e-02,5.320069566369056702e-02,5.577409267425537109e-02,-2.531911246478557587e-02,-2.879923768341541290e-02,-6.379182636737823486e-02,5.918939039111137390e-02,-2.424729056656360626e-02
1.927799731492996216e-02,-2.215949259698390961e-02,-6.103171780705451965e-02,-1.646052114665508270e-02,2.310961671173572540e-02,-2.069690497592091560e-03,8.025965839624404907e-02,6.839633733034133911e-02,-4.947076085954904556e-03,-4.542776569724082947e-02,-9.910301305353641510e-03,-6.669960916042327881e-02,-1.314601749181747437e-01,-1.395497657358646393e-02,9.273628145456314087e-02,6.480170879513025284e-03
-5.738614592701196671e-03,-4.921047762036323547e-02,6.440830230712890625e-02,-4.744012281298637390e-02,3.801069408655166626e-02,2.198684215545654297e-02,-2.292779646813869476e-02,3.306483617052435875e-03,1.598336547613143921e-02,5.315344780683517456e-02,-2.462343836668878794e-04,5.164976418018341064e-02,-4.731661081314086914e-02,5.455586686730384827e-02,-5.126438289880752563e-02,7.807289808988571167e-02
1.590718887746334076e-02,-4.456841200590133667e-02,5.014036595821380615e-02,2.482942678034305573e-02,1.227224990725517273e-02,-2.557295840233564377e-03,-3.560458123683929443e-02,-1.526342704892158508e-02,-2.883641514927148819e-03,2.638998068869113922e-02,3.633838519454002380e-02,-5.652683321386575699e-03,2.577924169600009918e-02,2.316679246723651886e-02,-6.179520860314369202e-03,-7.521843910217285156e-02
5.121118575334548950e-02,-2.229597046971321106e-02,2.781725302338600159e-02,-2.444245293736457825e-02,1.497172098606824875e-02,-9.098730236291885376e-02,6.057261675596237183e-02,3.275314345955848694e-02,-3.896797448396682739e-02,-8.152090013027191162e-02,-6.280241906642913818e-02,-8.489531278610229492e-02,4.370552953332662582e-03,-5.978426709771156311e-02,4.311787488404661417e-04,2.397512272000312805e-02
-6.789141800254583359e-03,-1.123511139303445816e-02,8.591386489570140839e-03,2.813314460217952728e-02,4.391211643815040588e-02,-3.465706482529640198e-02,-7.891979813575744629e-02,3.722712025046348572e-02,4.429795593023300171e-02,4.753609746694564819e-02,4.624289460480213165e-03,-2.715695463120937347e-02,-1.817492395639419556e-02,-3.862801007926464081e-03,-8.159736171364784241e-03,-5.669503659009933472e-02
-1.787726767361164093e-02,-1.646436378359794617e-02,1.330318152904510498e-01,-1.172003336250782013e-02,-2.657629735767841339e-02,-2.327647246420383453e-02,-5.895745009183883667e-02,2.060369029641151428e-02,4.041445255279541016e-02,-6.462111324071884155e-02,-1.387747842818498611e-02,1.107148174196481705e-02,8.828653395175933838e-02,5.366780236363410950e-02,-1.098347478546202183e-03,-5.852460488677024841e-02
2.172903344035148621e-02,-5.204842612147331238e-02,-1.035654619336128235e-01,3.981490433216094971e-02,-4.499937407672405243e-03,-3.528458625078201294e-02,-3.401589766144752502e-02,6.176467612385749817e-02,5.206512287259101868e-02,-2.336074598133563995e-02,1.374048274010419846e-02,4.301763325929641724e-02,1.186289861798286438e-01,-7.173471152782440186e-02,7.432783395051956177e-02,-6.520554423332214355e-02
-5.787770450115203857e-02,-2.840223722159862518e-02,8.828939497470855713e-02,7.306997198611497879e-03,3.549957182258367538e-03,1.465016417205333710e-02,2.809762395918369293e-02,-8.632747828960418701e-02,1.249709632247686386e-02,4.183735698461532593e-02,8.036275953054428101e-02,-1.696506142616271973e-02,7.857170701026916504e-02,6.632762402296066284e-02,-4.655200522392988205e-03,-1.298742834478616714e-02
2.587701380252838135e-02,-3.969419002532958984e-02,1.527185924351215363e-02,-1.551189459860324860e-02,-8.931445889174938202e-03,-7.604552060365676880e-02,9.107500314712524414e-02,-2.567692846059799194e-02,1.821302250027656555e-02,2.871822752058506012e-02,-1.773315854370594025e-02,-6.969314068555831909e-02,-3.825085982680320740e-02,-5.047326162457466125e-02,-4.933718964457511902e-02,1.100691109895706177e-01
1.215585134923458099e-02,1.979458890855312347e-02,-1.044437568634748459e-02,1.816813647747039795e-02,-1.767713390290737152e-02,1.159705594182014465e-02,-6.199333816766738892e-02,4.406624007970094681e-03,7.139428984373807907e-03,-1.874846965074539185e-02,2.119181863963603973e-02,2.241499489173293114e-03,4.522968083620071411e-02,2.672018855810165405e-02,1.232896652072668076e-02,-4.706119000911712646e-02
-3.305182978510856628e-02,-9.483411163091659546e-02,3.020501695573329926e-02,-5.859591439366340637e-02,-8.484161645174026489e-02,7.106732111424207687e-03,-7.780935615301132202e-02,-1.988199725747108459e-02,2.630622312426567078e-02,3.976814448833465576e-02,1.027919165790081024e-02,7.533344626426696777e-02,5.488678812980651855e-02,4.253157600760459900e-02,-2.791831642389297485e-02,-3.986471891403198242e-02
-1.033687740564346313e-01,8.322575129568576813e-03,-1.643056795001029968e-02,-7.960252463817596436e-02,1.714592613279819489e-02,4.736622050404548645e-02,-5.970229208469390869e-02,-2.107035741209983826e-02,2.686596103012561798e-02,7.000909000635147095e-02,6.542009860277175903e-02,2.277733758091926575e-02,-6.643065717071294785e-05,2.147257514297962189e-02,-1.118016149848699570e-02,-4.933289811015129089e-02
3.575468808412551880e-02,3.388101607561111450e-02,2.863491885364055634e-02,-1.454745233058929443e-01,-1.255058590322732925e-02,2.694914676249027252e-02,-3.494465351104736328e-02,-6.985898315906524658e-02,-5.246681626886129379e-03,-3.287934884428977966e-02,-2.514401916414499283e-03,1.028715670108795166e-01,9.435047395527362823e-03,6.362356990575790405e-02,-6.219821050763130188e-03,-2.534197084605693817e-02
-1.386629650369286537e-03,1.112118922173976898e-02,1.211862936615943909e-01,-5.133541673421859741e-02,4.486643895506858826e-02,-6.774532049894332886e-02,7.110442221164703369e-02,-3.604613617062568665e-02,-3.515450656414031982e-02,1.393043436110019684e-02,-5.234736576676368713e-02,-4.208933562040328979e-02,-6.837813556194305420e-02,-2.236594632267951965e-02,6.112800538539886475e-02,9.646437317132949829e-02
3.590821474790573120e-02,3.728145360946655273e-02,1.513049751520156860e-02,4.910697042942047119e-02,-1.347307581454515457e-02,-1.051639206707477570e-02,4.506102576851844788e-02,-2.973414584994316101e-02,-3.454810706898570061e-03,6.043878570199012756e-02,1.653657667338848114e-02,3.665991500020027161e-02,-1.013574376702308655e-01,3.108230791985988617e-02,-1.262530684471130371e-02,3.357244655489921570e-02
2.499310858547687531e-02,3.583338484168052673e-02,-5.284354090690612793e-03,4.425673559308052063e-02,1.427491288632154465e-02,3.273878991603851318e-02,-2.599846571683883667e-03,5.295589193701744080e-02,-3.405382484197616577e-02,6.473106145858764648e-02,-7.806140463799238205e-03,-3.281891345977783203e-02,-1.676505953073501587e-01,-2.950535714626312256e-02,2.153980080038309097e-03,1.095485463738441467e-01
-2.911259606480598450e-02,-1.213082578033208847e-02,8.942716568708419800e-02,-1.027866825461387634e-01,-1.259645540267229080e-02,5.407819524407386780e-02,-7.786741852760314941e-02,-5.115675181150436401e-02,9.032991528511047363e-02,1.628571748733520508e-02,4.399721696972846985e-02,1.327827870845794678e-01,-1.135326735675334930e-02,8.650290220975875854e-02,-7.204950787127017975e-03,-4.978114366531372070e-02
-2.920963615179061890e-02,1.482022088021039963e-02,4.890004917979240417e-02,-3.570719435811042786e-02,-2.307735756039619446e-02,-1.998997107148170471e-02,-3.569335862994194031e-02,-5.661282688379287720e-02,8.833309635519981384e-03,5.808395333588123322e-03,5.486210063099861145e-02,1.238683890551328659e-02,4.503258969634771347e-03,-5.449107289314270020e-02,-5.947982147336006165e-02,-3.069893270730972290e-02
-1.621756330132484436e-02,7.462406903505325317e-02,-8.816734701395034790e-02,-1.745834574103355408e-02,2.561514079570770264e-02,3.439341485500335693e-02,1.354494597762823105e-02,8.193717338144779205e-03,6.467918865382671356e-03,-4.547224380075931549e-03,-4.174315184354782104e-02,-3.716449812054634094e-02,-4.950144141912460327e-02,-8.554404973983764648e-02,-3.447296470403671265e-02,-2.257468365132808685e-02
-1.373200584203004837e-02,-3.647212684154510498e-02,3.299536556005477905e-02,1.091846264898777008e-02,1.470200251787900925e-02,3.860616125166416168e-03,-2.487254515290260315e-02,-1.981601305305957794e-02,-2.857382036745548248e-02,-2.445566281676292419e-02,7.260816544294357300e-02,-3.174938261508941650e-02,2.689887024462223053e-02,5.500344093888998032e-03,-6.967402994632720947e-03,-7.044410798698663712e-03
3.710383549332618713e-02,8.551446348428726196e-02,-5.075829103589057922e-02,-2.055853232741355896e-02,4.451794922351837158e-02,-1.201179176568984985e-01,3.891347348690032959e-02,2.783986739814281464e-02,-7.009506970643997192e-02,-7.682766020298004150e-02,1.717642135918140411e-02,-6.225329637527465820e-02,-2.321135066449642181e-02,-5.190396308898925781e-02,5.451772361993789673e-02,3.412225097417831421e-02
9.977202862501144409e-02,1.763970777392387390e-02,-6.120371818542480469e-02,2.732029370963573456e-02,-1.595485955476760864e-02,-3.033925965428352356e-02,3.944713249802589417e-02,9.930853545665740967e-02,-2.104826830327510834e-02,-1.187982968986034393e-02,-5.980107560753822327e-02,-5.906235426664352417e-02,2.437546290457248688e-02,-6.968913972377777100e-02,7.390082627534866333e-02,-2.481003664433956146e-02
-4.417465627193450928e-02,2.261842042207717896e-02,-9.227881208062171936e-03,7.338690757751464844e-02,-6.678490899503231049e-03,-4.588849842548370361e-02,3.607051447033882141e-02,4.301935434341430664e-03,-6.028743088245391846e-02,-2.607028186321258545e-02,-8.976670354604721069e-02,-1.279882937669754028e-01,-6.218979880213737488e-02,-3.129802271723747253e-02,5.354891344904899597e-02,-2.428871579468250275e-03
1.776671782135963440e-02,9.804592467844486237e-03,5.263251811265945435e-02,-1.377703621983528137e-02,-4.209687560796737671e-02,-3.525209799408912659e-02,8.102980442345142365e-03,1.211485080420970917e-02,2.560567669570446014e-02,-2.934843115508556366e-02,5.167810991406440735e-02,1.108539849519729614e-02,-3.405787795782089233e-02,5.650081858038902283e-02,2.255341783165931702e-02,-3.386694565415382385e-02
1.983873918652534485e-02,-2.275816537439823151e-02,2.528215944766998291e-02,2.048253268003463745e-02,-4.468142241239547729e-02,1.122120022773742676e-02,2.841211855411529541e-02,2.972675114870071411e-02,-4.374093189835548401e-02,1.661060750484466553e-02,-7.784771919250488281e-02,-5.351035296916961670e-02,1.924055255949497223e-02,-5.624365806579589844e-02,2.297789603471755981e-02,2.656338736414909363e-02
-3.798387944698333740e-02,-4.681222513318061829e-02,-1.077573280781507492e-03,3.312530741095542908e-02,-2.499680034816265106e-02,6.416351348161697388e-02,-2.374911867082118988e-02,-2.294740825891494751e-02,6.444624066352844238e-02,3.608981892466545105e-02,5.559832975268363953e-02,4.747308790683746338e-02,-3.420164063572883606e-02,7.727703452110290527e-02,-1.665369980037212372e-02,-7.491922378540039062e-02
-5.167137831449508667e-03,6.105621904134750366e-02,9.738373570144176483e-03,-7.695524953305721283e-03,9.280949598178267479e-04,7.353936322033405304e-03,-4.344865679740905762e-02,3.244433552026748657e-02,8.864434435963630676e-03,-8.355692028999328613e-02,1.944468473084270954e-03,-2.108586393296718597e-02,-2.823333442211151123e-02,-7.700761780142784119e-03,3.512382134795188904e-02,-3.608285263180732727e-02
6.156935915350914001e-02,5.524160340428352356e-02,4.414424300193786621e-02,-6.069389637559652328e-03,5.693849548697471619e-02,-6.044583022594451904e-02,7.139748428016901016e-03,-4.237719997763633728e-02,2.684157155454158783e-02,-8.308480679988861084e-02,1.391274854540824890e-02,-6.965129822492599487e-02,-7.092346902936697006e-03,-6.190212815999984741e-02,6.857869029045104980e-02,-1.619252562522888184e-02
-2.731063216924667358e-02,4.770174622535705566e-02,1.188113633543252945e-02,4.344061762094497681e-02,-1.259210053831338882e-02,-2.533515170216560364e-02,1.479003578424453735e-02,6.393013149499893188e-02,-3.832322359085083008e-02,-2.269640192389488220e-02,2.589589543640613556e-02,2.513520605862140656e-02,-1.801252178847789764e-02,2.201109565794467926e-02,-4.290557652711868286e-02,-3.660362586379051208e-02
-1.570377685129642487e-02,8.282856643199920654e-02,-1.798211038112640381e-02,1.318761985749006271e-02,-5.910187028348445892e-04,-4.450605809688568115e-02,2.770263887941837311e-02,1.072892472147941589e-01,-8.254513144493103027e-03,-2.692022174596786499e-02,-4.969195462763309479e-03,-6.229097396135330200e-02,-4.928888380527496338e-02,-1.790297962725162506e-02,2.409028075635433197e-02,1.109248176217079163e-01
6.989837158471345901e-03,-8.961826562881469727e-03,-1.499351207166910172e-02,-1.476678848266601562e-01,4.884030297398567200e-02,-5.094802752137184143e-02,-3.917944431304931641e-02,2.583920955657958984e-02,-3.010543249547481537e-02,6.178601086139678955e-02,3.428240865468978882e-02,-6.371298339217901230e-03,1.644992269575595856e-02,6.878161430358886719e-02,-6.292487680912017822e-02,8.458634838461875916e-03
6.256953626871109009e-02,5.194447189569473267e-02,-5.484290793538093567e-02,-2.718365192413330078e-02,1.061468943953514099e-01,-2.881933376193046570e-02,1.236344035714864731e-02,6.506494432687759399e-02,-3.938982263207435608e-02,5.034761969000101089e-03,-2.969962358474731445e-02,-2.623415365815162659e-02,-4.875287041068077087e-02,-1.099584028124809265e-01,-4.717361181974411011e-03,4.111530631780624390e-02
-7.461242843419313431e-03,4.251832515001296997e-02,-5.102885514497756958e-02,8.778993971645832062e-03,5.286819115281105042e-02,-3.015332482755184174e-02,2.344964258372783661e-02,3.631925676017999649e-03,-2.738020755350589752e-02,-1.367389224469661713e-02,1.723974943161010742e-02,-1.828552782535552979e-02,6.982473284006118774e-02,-5.244751926511526108e-03,-1.312294043600559235e-02,2.234675223007798195e-03
8.411252498626708984e-02,-1.823619008064270020e-02,5.237003322690725327e-03,-7.843275368213653564e-02,1.674608886241912842e-02,-6.434578448534011841e-02,4.197156056761741638e-02,5.924740806221961975e-02,-2.130653336644172668e-02,-2.822824753820896149e-02,1.927064172923564911e-02,3.379290923476219177e-02,-2.140964381396770477e-02,-2.257938310503959656e-02,8.020793646574020386e-02,8.676043152809143066e-02
-8.290545642375946045e-02,-4.921013116836547852e-02,-3.918864205479621887e-02,-2.644525468349456787e-02,-3.894640132784843445e-02,-2.417545765638351440e-02,4.013734310865402222e-02,-3.145065531134605408e-02,-5.100905895233154297e-03,1.478901505470275879e-02,6.749996542930603027e-02,1.498197857290506363e-02,8.526140591129660606e-04,6.139019504189491272e-03,-1.396796572953462601e-02,-8.101815730333328247e-02
-1.195690874010324478e-02,-6.953478790819644928e-03,-3.120102360844612122e-02,3.063317015767097473e-02,-1.292613241821527481e-02,-6.031271815299987793e-02,4.297974705696105957e-02,8.914347272366285324e-04,-9.438891895115375519e-03,-1.418451499193906784e-02,-3.310070559382438660e-02,-2.218187600374221802e-02,-1.395970862358808517e-02,3.099690563976764679e-02,2.475827001035213470e-02,-3.836287930607795715e-02
8.106693625450134277e-02,2.939718076959252357e-03,1.665138080716133118e-02,-5.156578123569488525e-02,2.501753345131874084e-02,-1.069479882717132568e-01,7.084637880325317383e-02,-5.503107234835624695e-02,-9.126617014408111572e-02,-4.885815083980560303e-02,-3.159761428833007812e-03,-4.598522186279296875e-02,-9.427881799638271332e-03,-1.119716018438339233e-01,1.780131459236145020e-02,9.100569039583206177e-02
-5.928915925323963165e-03,-3.536695614457130432e-02,-1.504558231681585312e-02,2.375607192516326904e-02,1.291442010551691055e-02,5.491249263286590576e-03,-9.130068123340606689e-02,5.433591455221176147e-02,1.195839978754520416e-02,1.200060732662677765e-02,-4.756502434611320496e-02,-1.425735000520944595e-02,4.827401041984558105e-02,-2.804259769618511200e-02,-3.516063094139099121e-02,-1.577194780111312866e-02
6.247939076274633408e-03,3.246117383241653442e-02,1.055643055588006973e-02,-2.773412875831127167e-02,4.607138689607381821e-03,-3.736147657036781311e-02,7.391822338104248047e-02,2.556504681706428528e-02,-2.718176506459712982e-02,-2.790627814829349518e-02,-1.248744502663612366e-01,-6.740211695432662964e-02,-5.663064867258071899e-02,8.086660876870155334e-03,7.441355846822261810e-03,7.178424298763275146e-02
-2.182930335402488708e-02,3.141580894589424133e-02,-3.621323779225349426e-02,1.064428761601448059e-01,-2.706597791984677315e-03,3.831692039966583252e-02,2.938850224018096924e-02,1.884091459214687347e-02,3.046062961220741272e-02,-1.630911417305469513e-02,-6.941485404968261719e-02,-4.933437332510948181e-02,4.787302017211914062e-02,2.216835506260395050e-02,-1.440100185573101044e-02,-2.143240720033645630e-02
-2.481460757553577423e-02,-5.411551892757415771e-02,8.500654250383377075e-02,4.805258288979530334e-02,-2.893647365272045135e-02,-1.953634805977344513e-02,1.278604846447706223e-02,-4.121408611536026001e-02,1.414654124528169632e-02,2.961291465908288956e-04,-2.259276621043682098e-02,1.257604733109474182e-02,4.837549058720469475e-04,1.341372076421976089e-02,-5.407929047942161560e-02,3.678518906235694885e-02
-2.419054508209228516e-02,-6.229145918041467667e-03,-2.947441488504409790e-02,1.295833382755517960e-02,3.440406173467636108e-02,1.292983070015907288e-02,-4.172530770301818848e-02,5.527298897504806519e-02,1.897036843001842499e-02,-1.860429346561431885e-02,1.584867201745510101e-02,-2.123976871371269226e-02,-1.107328161597251892e-01,-7.594164460897445679e-02,-3.173510730266571045e-02,1.723906025290489197e-02
-1.729649677872657776e-02,4.439135640859603882e-02,-1.871090009808540344e-02,1.307565439492464066e-02,7.206844747997820377e-04,1.692026108503341675e-02,5.360598862171173096e-02,-2.477520704269409180e-02,5.114302970468997955e-03,4.579943418502807617e-02,-9.588396176695823669e-03,1.579644158482551575e-02,-3.020359948277473450e-02,3.459778428077697754e-02,-3.307356685400009155e-02,-2.431476302444934845e-02
-7.773842662572860718e-02,-6.236803531646728516e-02,5.668091773986816406e-02,-1.481048297137022018e-02,-8.421958237886428833e-02,2.423853799700737000e-02,-4.580047726631164551e-02,-9.566151537001132965e-03,-6.756015121936798096e-03,4.996452480554580688e-03,1.400119960308074951e-01,3.142370656132698059e-02,4.356228746473789215e-03,1.099661216139793396e-01,1.843696087598800659e-02,-6.510336697101593018e-02
8.808450400829315186e-02,7.460503280162811279e-02,-3.747556358575820923e-02,-2.432698570191860199e-02,9.323817491531372070e-02,-2.414540015161037445e-02,1.439256407320499420e-02,3.826005384325981140e-03,-7.697018235921859741e-02,-5.112411081790924072e-02,-1.086566247977316380e-03,-2.275662869215011597e-02,-5.343123525381088257e-02,-4.696901887655258179e-02,3.407455980777740479e-02,1.793092675507068634e-02
1.388944219797849655e-02,5.880912067368626595e-04,-8.193174004554748535e-02,5.412614345550537109e-02,6.321207154542207718e-03,3.674435243010520935e-02,-1.777565851807594299e-02,5.840458348393440247e-02,-6.361819058656692505e-02,-5.767110735177993774e-02,1.506888493895530701e-02,-7.595124654471874237e-03,-8.945695008151233196e-04,-4.048141092061996460e-02,-1.115074940025806427e-02,9.047418832778930664e-03
1.485115848481655121e-02,2.453147806227207184e-02,1.312309224158525467e-02,-2.796393446624279022e-02,-5.119561031460762024e-02,3.240070119500160217e-02,-6.476939469575881958e-02,-6.107706576585769653e-02,4.442965984344482422e-02,2.337657846510410309e-02,-7.968750782310962677e-03,1.014395952224731445e-01,4.622234404087066650e-02,1.636354625225067139e-02,-7.375411689281463623e-02,-2.732271514832973480e-02
-5.784805491566658020e-02,-4.388649016618728638e-02,2.388603985309600830e-02,-7.653994113206863403e-02,3.714915364980697632e-03,3.678187727928161621e-02,-1.040034666657447815e-01,-2.128076553344726562e-02,-5.456406623125076294e-03,-2.741280710324645042e-03,2.012930810451507568e-02,1.171858757734298706e-01,1.326356548815965652e-02,1.246541645377874374e-02,1.238797605037689209e-02,-8.762219548225402832e-02
3.474565967917442322e-02,5.232378095388412476e-02,-1.103477850556373596e-01,-1.204720325767993927e-02,-3.284376114606857300e-02,5.770865082740783691e-02,1.008311882615089417e-01,8.339353650808334351e-02,-6.722043454647064209e-02,-5.288665369153022766e-02,2.101664245128631592e-02,-2.961544878780841827e-02,-6.738979369401931763e-02,-2.018152922391891479e-02,7.738100737333297729e-02,3.575896099209785461e-02
2.157574146986007690e-02,-6.479181349277496338e-03,-6.512743234634399414e-02,-1.161543093621730804e-02,-2.100781165063381195e-02,-1.968223601579666138e-02,7.988246530294418335e-02,1.735466159880161285e-02,-7.733173668384552002e-02,-2.449205145239830017e-02,8.634435012936592102e-03,-9.087061882019042969e-02,-8.702424913644790649e-02,-4.560564085841178894e-02,5.204867571592330933e-03,1.117460280656814575e-01
-5.299974232912063599e-02,-4.008501023054122925e-02,-2.558265440165996552e-02,-4.828977957367897034e-02,-4.847228899598121643e-02,9.167879074811935425e-02,-4.696554690599441528e-02,-9.470760822296142578e-02,6.317867338657379150e-02,4.484412446618080139e-02,8.599248528480529785e-02,2.585047483444213867e-02,-2.530613169074058533e-02,3.888595104217529297e-02,-1.014119014143943787e-01,-5.829894170165061951e-02
-7.536017894744873047e-02,2.121356781572103500e-03,-7.143136858940124512e-02,7.158580422401428223e-02,-1.070903614163398743e-01,9.785271435976028442e-02,-6.445194780826568604e-02,-5.362629145383834839e-02,2.598301693797111511e-02,8.356044068932533264e-03,1.195063907653093338e-02,-3.595079109072685242e-02,1.376120895147323608e-01,5.606927350163459778e-02,1.491211354732513428e-02,-9.726905822753906250e-02
-4.163580015301704407e-02,-4.791175201535224915e-02,-4.511653259396553040e-02,-2.718473970890045166e-02,-7.497992366552352905e-02,7.579400390386581421e-02,-3.895344212651252747e-02,-7.765065878629684448e-02,5.239455774426460266e-02,-1.916685700416564941e-02,6.352145969867706299e-02,1.026234216988086700e-02,3.238573670387268066e-02,4.458950133994221687e-04,2.880380116403102875e-02,-6.616462767124176025e-02
-3.362522274255752563e-02,1.066239550709724426e-02,-1.104670837521553040e-01,7.322187721729278564e-02,2.155802212655544281e-02,-3.974620625376701355e-02,-6.360535323619842529e-02,-8.485665544867515564e-03,4.117261245846748352e-02,-7.923117280006408691e-02,7.784223556518554688e-02,-8.090272545814514160e-03,1.281685829162597656e-01,-1.609279960393905640e-02,4.263743292540311813e-03,-4.721016809344291687e-02
-5.280480720102787018e-03,-5.112519115209579468e-02,1.005286648869514465e-01,-2.721947431564331055e-02,-6.860145181417465210e-02,5.375717580318450928e-02,2.361162193119525909e-02,-5.614506453275680542e-02,2.714447118341922760e-02,1.463794410228729248e-01,5.264053866267204285e-02,8.132610470056533813e-02,-6.384442001581192017e-02,6.539732683449983597e-03,-4.264287650585174561e-02,-3.645077114924788475e-03
-1.012740507721900940e-01,-8.474195748567581177e-02,1.159955710172653198e-01,6.836140528321266174e-03,-5.708060041069984436e-02,8.916018903255462646e-02,-8.831778168678283691e-02,-4.034623503684997559e-02,4.285231232643127441e-02,3.901462256908416748e-02,4.207124188542366028e-02,8.398111909627914429e-02,6.648593116551637650e-03,8.051183819770812988e-02,-1.948906481266021729e-02,-5.191089212894439697e-02
-3.112665191292762756e-02,-1.115745864808559418e-02,9.715604595839977264e-03,4.177203774452209473e-02,-5.420675128698348999e-02,2.227892540395259857e-02,2.525136806070804596e-02,1.271832454949617386e-02,-2.602304518222808838e-02,-2.143188565969467163e-02,-7.639476656913757324e-02,2.529665641486644745e-02,-3.129995986819267273e-02,-5.661130324006080627e-02,-5.433907732367515564e-02,3.293206170201301575e-02
3.433962538838386536e-02,-8.333637565374374390e-02,4.852926358580589294e-02,5.220421031117439270e-02,-3.062914125621318817e-02,1.766454987227916718e-02,-2.720528468489646912e-02,3.242298960685729980e-02,-1.633048243820667267e-02,-1.744715124368667603e-02,1.850883476436138153e-02,-2.974589169025421143e-02,-2.515428327023983002e-02,2.611485496163368225e-02,2.937979437410831451e-02,-2.610830590128898621e-03
3.240370750427246094e-02,-5.341968685388565063e-02,5.178242921829223633e-02,5.382325500249862671e-02,-3.883991157636046410e-03,-2.083048224449157715e-03,1.223368197679519653e-02,-6.684150546789169312e-02,-5.601898580789566040e-02,-3.009536303579807281e-03,1.041689328849315643e-02,3.638723120093345642e-02,-1.073186984285712242e-03,5.192349664866924286e-03,2.864635363221168518e-02,-1.242293789982795715e-02
1.184410043060779572e-02,-4.134975373744964600e-02,2.950602024793624878e-02,-1.362154185771942139e-01,-3.116112202405929565e-02,2.536544017493724823e-02,-5.674302205443382263e-02,2.585777454078197479e-02,6.071144714951515198e-02,4.347098618745803833e-02,2.345458976924419403e-02,4.438180103898048401e-02,2.228659763932228088e-02,-1.168112829327583313e-02,1.065488439053297043e-02,-4.610933735966682434e-02
4.042497649788856506e-02,1.210247259587049484e-02,1.617026142776012421e-02,-5.460813269019126892e-02,-3.119626455008983612e-02,3.983971476554870605e-02,-2.596733719110488892e-02,4.169077612459659576e-03,-3.274495899677276611e-02,8.773148059844970703e-02,-1.461229193955659866e-02,6.211700383573770523e-03,-1.106280833482742310e-02,1.925225183367729187e-02,-7.518977671861648560e-02,1.105933450162410736e-03
-5.095172673463821411e-02,9.180988185107707977e-03,-2.284304006025195122e-03,1.376509945839643478e-02,6.600748747587203979e-03,-1.567612960934638977e-02,-2.216306701302528381e-02,-6.678885966539382935e-02,-1.944397389888763428e-02,2.703947946429252625e-02,5.296830832958221436e-02,6.606211885809898376e-03,4.707318916916847229e-02,-7.951188832521438599e-03,-4.173633083701133728e-02,4.798652138561010361e-03
-5.607122555375099182e-02,-2.042192034423351288e-02,-9.478902816772460938e-02,-5.807833746075630188e-03,-7.263981550931930542e-02,1.412766873836517334e-01,-3.808972612023353577e-02,-2.093035355210304260e-02,5.005312338471412659e-02,4.571248590946197510e-02,5.902209132909774780e-02,4.950706288218498230e-02,1.188476085662841797e-01,1.092728450894355774e-01,-1.062175855040550232e-01,-6.724914908409118652e-02
-4.589901119470596313e-02,4.437075927853584290e-02,-6.508000940084457397e-02,9.985023178160190582e-03,-3.511698171496391296e-02,3.480130061507225037e-02,1.492180302739143372e-02,-1.434027124196290970e-02,1.527975685894489288e-02,3.924850746989250183e-02,-3.284832090139389038e-02,-1.464149169623851776e-02,-3.710146760568022728e-03,1.088858209550380707e-02,-9.823275357484817505e-02,-1.262306421995162964e-02
-3.424053639173507690e-02,6.715232133865356445e-02,7.546161860227584839e-02,4.770791903138160706e-02,-5.706508178263902664e-03,-1.451372983865439892e-03,-6.213253363966941833e-02,2.483042143285274506e-02,-5.296311154961585999e-02,4.812913481146097183e-03,2.850831020623445511e-03,2.166557870805263519e-02,8.575937245041131973e-04,-1.484386622905731201e-02,2.365493215620517731e-03,-2.458504168316721916e-03
