-7.252298761159181595e-03
-2.192272804677486420e-03
2.077958546578884125e-03
-3.000959055498242378e-03
-4.982671234756708145e-03
4.263930488377809525e-03
-2.652013674378395081e-03
7.681867107748985291e-03
2.796066692098975182e-03
3.632595180533826351e-04
7.223223336040973663e-03
7.748691132292151451e-04
-4.919826169498264790e-04
1.115027233026921749e-03
-1.414589583873748779e-03
-4.207784309983253479e-03
-9.250134229660034180e-03
3.482712898403406143e-03
4.638582002371549606e-03
1.204459695145487785e-03
-2.250269986689090729e-03
5.654192995280027390e-03
9.306352585554122925e-04
-4.930327413603663445e-04
-5.840483587235212326e-03
-2.326846588402986526e-03
-1.441405620425939560e-04
-6.446533370763063431e-04
5.732392310164868832e-05
-4.478157497942447662e-03
7.018371834419667721e-04
1.143583795055747032e-03
1.555514428764581680e-02
1.052432227879762650e-03
3.172315191477537155e-03
7.371191866695880890e-03
9.606029838323593140e-03
-3.032240085303783417e-03
2.805009717121720314e-03
1.084345974959433079e-03
